booster[0]:
0:[L3_S32_D3852<13.265] yes=1,no=2,missing=1
	1:[L3_S29_D3474<1040.84] yes=3,no=4,missing=3
		3:[L1_S24_D1536<392.445] yes=7,no=8,missing=7
			7:[L3_S34_D3875<180.555] yes=11,no=12,missing=11
				11:[L0_S19_D454<156.015] yes=19,no=20,missing=19
					19:[L0_S7_D137<950.31] yes=33,no=34,missing=33
						33:leaf=-0.0158416
						34:leaf=0.00372678
					20:leaf=0.0122707
				12:[L3_S30_D3496<271.465] yes=21,no=22,missing=21
					21:[L3_S36_D3923<218.495] yes=35,no=36,missing=35
						35:leaf=-0.00118305
						36:leaf=0.0301596
					22:[L3_S29_D3474<340.01] yes=37,no=38,missing=37
						37:leaf=-0.0162097
						38:leaf=0.00135504
			8:[L1_S24_D1558<704.475] yes=13,no=14,missing=13
				13:[L3_S36_D3923<493.725] yes=23,no=24,missing=23
					23:leaf=0.0738228
					24:leaf=-0.000198297
				14:[L1_S24_D1587<762.97] yes=25,no=26,missing=25
					25:[L1_S24_D1809<753.045] yes=39,no=40,missing=39
						39:leaf=-0.0096172
						40:leaf=0.00900207
					26:leaf=0.0262522
		4:[L0_S6_D127<1511.42] yes=9,no=10,missing=9
			9:[L3_S35_D3891<1260.7] yes=15,no=16,missing=15
				15:[L0_S17_D432<1328.81] yes=27,no=28,missing=27
					27:[L0_S1_D30<1604.54] yes=41,no=42,missing=41
						41:leaf=-0.0161913
						42:leaf=-0.000108677
					28:leaf=0.00464119
				16:[L3_S29_D3316<1339.45] yes=29,no=30,missing=29
					29:leaf=0.0254179
					30:[L0_S5_D117<1440.35] yes=43,no=44,missing=43
						43:leaf=-0.0159569
						44:leaf=-0.00347068
			10:[L0_S8_D145<1560.22] yes=17,no=18,missing=17
				17:leaf=0.0348511
				18:[L0_S3_D74<1595.15] yes=31,no=32,missing=31
					31:leaf=-0.0142006
					32:leaf=0.00419978
	2:[L3_S33_D3856<271.42] yes=5,no=6,missing=5
		5:leaf=0.284564
		6:leaf=-0.00172702
booster[1]:
0:[L3_S32_D3852<163.375] yes=1,no=2,missing=1
	1:[L3_S29_D3474<1011.52] yes=3,no=4,missing=3
		3:[L3_S35_D3891<616.945] yes=7,no=8,missing=7
			7:[L1_S24_D1674<406.495] yes=11,no=12,missing=11
				11:[L0_S7_D137<670.685] yes=19,no=20,missing=19
					19:[L0_S14_D360<155.275] yes=31,no=32,missing=31
						31:leaf=-0.00622074
						32:leaf=0.00568623
					20:[L3_S29_D3474<897.17] yes=33,no=34,missing=33
						33:leaf=0.0159951
						34:leaf=-0.00104638
				12:[L1_S24_D1809<456.415] yes=21,no=22,missing=21
					21:leaf=0.0260378
					22:leaf=0.0089678
			8:[L0_S8_D147<623.105] yes=13,no=14,missing=13
				13:[L1_S24_D1568<704.485] yes=23,no=24,missing=23
					23:[L0_S12_D331<656.24] yes=35,no=36,missing=35
						35:leaf=0.0403781
						36:leaf=0.00626909
					24:[L1_S24_D1522<762.405] yes=37,no=38,missing=37
						37:leaf=-0.012657
						38:leaf=0.0210777
				14:[L0_S2_D34<838.47] yes=25,no=26,missing=25
					25:[L0_S10_D216<641.935] yes=39,no=40,missing=39
						39:leaf=-0.012821
						40:leaf=0.00688266
					26:[L3_S29_D3316<927.12] yes=41,no=42,missing=41
						41:leaf=0.0262173
						42:leaf=-0.00546118
		4:[L0_S4_D106<1511.42] yes=9,no=10,missing=9
			9:[L0_S7_D137<1574.83] yes=15,no=16,missing=15
				15:[L1_S24_D1522<1158.88] yes=27,no=28,missing=27
					27:[L0_S12_D331<1261.81] yes=43,no=44,missing=43
						43:leaf=-0.0137145
						44:leaf=-0.005337
					28:leaf=0.00165166
				16:leaf=0.0092888
			10:[L3_S37_D3942<1563.95] yes=17,no=18,missing=17
				17:leaf=0.0248776
				18:[L0_S3_D70<1582.73] yes=29,no=30,missing=29
					29:leaf=-0.010594
					30:leaf=0.00241047
	2:[L3_S33_D3856<239.97] yes=5,no=6,missing=5
		5:leaf=0.283823
		6:leaf=0.00137785
booster[2]:
0:[L3_S33_D3856<-499999] yes=1,no=2,missing=1
	1:[L3_S30_D3506<71.105] yes=3,no=4,missing=3
		3:[L0_S10_D216<524.88] yes=7,no=8,missing=7
			7:[L0_S12_D331<107.4] yes=13,no=14,missing=13
				13:[L0_S3_D70<571.785] yes=23,no=24,missing=23
					23:leaf=-0.0157252
					24:leaf=-0.000111808
				14:leaf=0.00432756
			8:leaf=0.0104812
		4:leaf=0.235362
	2:[L1_S24_D1536<392.445] yes=5,no=6,missing=5
		5:[L3_S29_D3477<937.33] yes=9,no=10,missing=9
			9:[L3_S34_D3879<135.77] yes=15,no=16,missing=15
				15:leaf=-0.0174519
				16:[L3_S35_D3886<616.945] yes=25,no=26,missing=25
					25:[L0_S15_D395<281.895] yes=37,no=38,missing=37
						37:leaf=7.14954e-05
						38:leaf=-0.0177111
					26:[L0_S9_D157<634.635] yes=39,no=40,missing=39
						39:leaf=0.0190367
						40:leaf=-0.0069589
			10:[L0_S4_D106<1530.68] yes=17,no=18,missing=17
				17:[L3_S36_D3919<1609.76] yes=27,no=28,missing=27
					27:[L3_S33_D3856<1361.59] yes=41,no=42,missing=41
						41:leaf=-0.00903801
						42:leaf=-0.0149667
					28:leaf=0.00790142
				18:[L0_S0_D1<1583.06] yes=29,no=30,missing=29
					29:leaf=0.0183868
					30:[L0_S3_D70<1594.71] yes=43,no=44,missing=43
						43:leaf=-0.0119793
						44:leaf=-8.98738e-05
		6:[L1_S24_D1522<964.555] yes=11,no=12,missing=11
			11:[L3_S36_D3919<493.725] yes=19,no=20,missing=19
				19:[L1_S24_D1558<703.575] yes=31,no=32,missing=31
					31:leaf=0.0564172
					32:[L1_S24_D1828<762.435] yes=45,no=46,missing=45
						45:leaf=-0.00859003
						46:leaf=0.0327114
				20:[L1_S24_D1558<763.555] yes=33,no=34,missing=33
					33:[L3_S29_D3316<760.27] yes=47,no=48,missing=47
						47:leaf=0.00423714
						48:leaf=-0.0151958
					34:leaf=0.0348419
			12:[L3_S29_D3477<1197.09] yes=21,no=22,missing=21
				21:[L1_S24_D1765<977.545] yes=35,no=36,missing=35
					35:leaf=-0.00624293
					36:leaf=-0.016102
				22:leaf=0.0117007
booster[3]:
0:[L3_S32_D3852<13.77] yes=1,no=2,missing=1
	1:[L1_S24_D1765<449.175] yes=3,no=4,missing=3
		3:[L3_S29_D3474<1040.84] yes=7,no=8,missing=7
			7:[L1_S24_D1587<449.105] yes=11,no=12,missing=11
				11:[L0_S19_D454<156.015] yes=17,no=18,missing=17
					17:[L3_S29_D3316<182.02] yes=27,no=28,missing=27
						27:leaf=-0.0108944
						28:leaf=-0.00153579
					18:[L3_S36_D3919<223.365] yes=29,no=30,missing=29
						29:leaf=0.0179183
						30:leaf=-0.00724567
				12:[L3_S36_D3919<493.265] yes=19,no=20,missing=19
					19:leaf=0.0255688
					20:leaf=0.00749669
			8:[L3_S30_D3501<1513.38] yes=13,no=14,missing=13
				13:[L0_S21_D469<1264.59] yes=21,no=22,missing=21
					21:[L0_S4_D106<1153.62] yes=31,no=32,missing=31
						31:leaf=-0.0161239
						32:leaf=-0.00901901
					22:leaf=0.00490407
				14:[L3_S30_D3501<1543.7] yes=23,no=24,missing=23
					23:leaf=0.0195741
					24:[L3_S36_D3919<1577.66] yes=33,no=34,missing=33
						33:leaf=-0.0101154
						34:leaf=0.00286284
		4:[L1_S24_D1568<704.485] yes=9,no=10,missing=9
			9:leaf=0.0520375
			10:[L1_S24_D1568<977.525] yes=15,no=16,missing=15
				15:[L1_S24_D1511<773.015] yes=25,no=26,missing=25
					25:leaf=-0.00743052
					26:leaf=0.0429571
				16:leaf=-0.00831774
	2:[L3_S33_D3856<-499992] yes=5,no=6,missing=5
		5:leaf=0.190369
		6:leaf=-0.00255639
booster[4]:
0:[L3_S32_D3852<163.375] yes=1,no=2,missing=1
	1:[L1_S24_D1536<392.445] yes=3,no=4,missing=3
		3:[L3_S29_D3477<1006.98] yes=7,no=8,missing=7
			7:[L3_S34_D3875<145.91] yes=13,no=14,missing=13
				13:[L0_S10_D216<524.88] yes=21,no=22,missing=21
					21:[L3_S40_D3983<1398.64] yes=31,no=32,missing=31
						31:leaf=-0.015557
						32:leaf=0.00323185
					22:leaf=0.0105698
				14:[L2_S26_D3037<435.99] yes=23,no=24,missing=23
					23:[L0_S5_D115<634.315] yes=33,no=34,missing=33
						33:leaf=-0.00211873
						34:leaf=0.00968859
					24:[L3_S36_D3919<721.56] yes=35,no=36,missing=35
						35:leaf=0.0239079
						36:leaf=-0.0034681
			8:[L0_S3_D74<1476.39] yes=15,no=16,missing=15
				15:[L3_S35_D3886<1266.32] yes=25,no=26,missing=25
					25:[L0_S15_D395<1341.18] yes=37,no=38,missing=37
						37:leaf=-0.0142542
						38:leaf=0.00957364
					26:[L3_S29_D3316<1323.26] yes=39,no=40,missing=39
						39:leaf=0.0352038
						40:leaf=-0.0115662
				16:[L3_S33_D3856<1624.41] yes=27,no=28,missing=27
					27:[L0_S5_D115<1499.9] yes=41,no=42,missing=41
						41:leaf=0.0240386
						42:leaf=-0.00264109
					28:leaf=-0.0103388
		4:[L1_S24_D1511<993.585] yes=9,no=10,missing=9
			9:[L2_S27_D3130<743.71] yes=17,no=18,missing=17
				17:[L1_S24_D1583<762.97] yes=29,no=30,missing=29
					29:[L2_S26_D3037<-499800] yes=43,no=44,missing=43
						43:leaf=0.0441709
						44:leaf=0.00909862
					30:leaf=0.0440427
				18:leaf=0.000745996
			10:[L3_S30_D3496<1198.31] yes=19,no=20,missing=19
				19:leaf=-0.0149744
				20:leaf=0.00490651
	2:[L3_S34_D3875<-499915] yes=5,no=6,missing=5
		5:leaf=0.211867
		6:[L3_S33_D3856<671.205] yes=11,no=12,missing=11
			11:leaf=0.0338609
			12:leaf=-0.00733063
booster[5]:
0:[L3_S32_D3852<167.095] yes=1,no=2,missing=1
	1:[L3_S29_D3480<1006.98] yes=3,no=4,missing=3
		3:[L1_S24_D1527<392.445] yes=7,no=8,missing=7
			7:[L3_S38_D3953<525.52] yes=11,no=12,missing=11
				11:[L2_S26_D3037<809.445] yes=19,no=20,missing=19
					19:[L0_S22_D548<155.28] yes=31,no=32,missing=31
						31:leaf=-0.00395803
						32:leaf=0.0103005
					20:[L0_S7_D139<-499590] yes=33,no=34,missing=33
						33:leaf=0.0234627
						34:leaf=-0.0116541
				12:leaf=0.0230471
			8:[L1_S24_D1674<724.635] yes=13,no=14,missing=13
				13:[L1_S24_D1674<692.53] yes=21,no=22,missing=21
					21:[L1_S24_D1558<670.785] yes=35,no=36,missing=35
						35:leaf=0.0419384
						36:leaf=0.00748506
					22:leaf=0.0540537
				14:[L3_S29_D3316<800.645] yes=23,no=24,missing=23
					23:leaf=-0.0128864
					24:leaf=0.0213883
		4:[L0_S4_D106<1511.42] yes=9,no=10,missing=9
			9:[L0_S15_D395<1314.18] yes=15,no=16,missing=15
				15:[L0_S3_D70<1482.16] yes=25,no=26,missing=25
					25:[L1_S24_D1811<-499519] yes=37,no=38,missing=37
						37:leaf=-0.0153774
						38:leaf=-0.00242473
					26:[L3_S30_D3496<1551.94] yes=39,no=40,missing=39
						39:leaf=0.004915
						40:leaf=-0.0095983
				16:[L0_S18_D441<1327.86] yes=27,no=28,missing=27
					27:leaf=0.0130648
					28:leaf=-0.0103856
			10:[L0_S8_D145<1557.9] yes=17,no=18,missing=17
				17:leaf=0.0248439
				18:[L3_S29_D3316<1644.24] yes=29,no=30,missing=29
					29:leaf=-0.000869029
					30:leaf=-0.0156953
	2:[L3_S33_D3856<185.945] yes=5,no=6,missing=5
		5:leaf=0.118979
		6:leaf=-0.00686069
booster[6]:
0:[L3_S32_D3852<167.095] yes=1,no=2,missing=1
	1:[L3_S29_D3474<1011.52] yes=3,no=4,missing=3
		3:[L2_S26_D3037<707.335] yes=7,no=8,missing=7
			7:[L1_S24_D1527<406.485] yes=13,no=14,missing=13
				13:[L0_S19_D454<156.05] yes=21,no=22,missing=21
					21:[L3_S36_D3921<823.485] yes=33,no=34,missing=33
						33:leaf=-0.00534239
						34:leaf=0.00822818
					22:[L3_S29_D3316<571.005] yes=35,no=36,missing=35
						35:leaf=0.0141018
						36:leaf=-0.00898974
				14:[L3_S36_D3921<493.685] yes=23,no=24,missing=23
					23:[L1_S24_D1558<707.125] yes=37,no=38,missing=37
						37:leaf=0.0598808
						38:leaf=0.00468298
					24:leaf=-0.00732436
			8:[L3_S36_D3921<721.565] yes=15,no=16,missing=15
				15:[L1_S24_D1558<704.475] yes=25,no=26,missing=25
					25:[L3_S33_D3856<891.695] yes=39,no=40,missing=39
						39:leaf=0.0558548
						40:leaf=0.00040491
					26:[L3_S29_D3474<780.215] yes=41,no=42,missing=41
						41:leaf=-0.0111987
						42:leaf=0.0168414
				16:[L1_S24_D1558<763.48] yes=27,no=28,missing=27
					27:[L2_S26_D3037<909.155] yes=43,no=44,missing=43
						43:leaf=-0.0125886
						44:leaf=0.000424026
					28:leaf=0.0237816
		4:[L0_S4_D106<1511.41] yes=9,no=10,missing=9
			9:[L2_S26_D3037<1190.8] yes=17,no=18,missing=17
				17:[L3_S36_D3921<1577.66] yes=29,no=30,missing=29
					29:[L0_S4_D106<1156.54] yes=45,no=46,missing=45
						45:leaf=-0.0144446
						46:leaf=-0.00577981
					30:leaf=0.00378653
				18:leaf=0.0104319
			10:[L0_S8_D145<1557.84] yes=19,no=20,missing=19
				19:leaf=0.0299063
				20:[L0_S3_D70<1582.73] yes=31,no=32,missing=31
					31:leaf=-0.0106127
					32:leaf=0.00765398
	2:[L3_S34_D3883<-499912] yes=5,no=6,missing=5
		5:leaf=0.155861
		6:[L3_S33_D3856<671.205] yes=11,no=12,missing=11
			11:leaf=0.0302574
			12:leaf=0.0020889
booster[7]:
0:[L3_S33_D3864<-499999] yes=1,no=2,missing=1
	1:[L3_S30_D3506<13.56] yes=3,no=4,missing=3
		3:[L3_S43_D4062<1393.24] yes=7,no=8,missing=7
			7:[L0_S0_D1<1060.23] yes=13,no=14,missing=13
				13:[L0_S8_D145<524.715] yes=21,no=22,missing=21
					21:[L0_S12_D335<107.4] yes=33,no=34,missing=33
						33:leaf=-0.0156582
						34:leaf=0.00604455
					22:leaf=0.0198171
				14:leaf=-0.0172158
			8:leaf=0.0198843
		4:leaf=0.121563
	2:[L3_S29_D3474<1038.25] yes=5,no=6,missing=5
		5:[L1_S24_D1536<392.445] yes=9,no=10,missing=9
			9:[L3_S34_D3877<135.77] yes=15,no=16,missing=15
				15:[L0_S19_D454<40.245] yes=23,no=24,missing=23
					23:[L0_S9_D157<14.57] yes=35,no=36,missing=35
						35:leaf=-0.0174962
						36:leaf=-0.00600115
					24:leaf=-0.00549873
				16:[L0_S9_D157<263.24] yes=25,no=26,missing=25
					25:[L1_S24_D1116<367.845] yes=37,no=38,missing=37
						37:leaf=0.00232591
						38:leaf=-0.0147171
					26:[L0_S7_D137<339.985] yes=39,no=40,missing=39
						39:leaf=-0.0131666
						40:leaf=-0.00405585
			10:[L1_S24_D1532<670.785] yes=17,no=18,missing=17
				17:leaf=0.0450945
				18:[L1_S24_D1570<690.275] yes=27,no=28,missing=27
					27:leaf=-0.00805992
					28:[L3_S34_D3877<760.275] yes=41,no=42,missing=41
						41:leaf=0.0339508
						42:leaf=0.00812948
		6:[L2_S26_D3037<1194.23] yes=11,no=12,missing=11
			11:[L0_S3_D70<1532.02] yes=19,no=20,missing=19
				19:[L3_S35_D3886<1260.7] yes=29,no=30,missing=29
					29:[L0_S15_D395<1341.18] yes=43,no=44,missing=43
						43:leaf=-0.0160605
						44:leaf=-0.000491609
					30:[L3_S29_D3316<1297.95] yes=45,no=46,missing=45
						45:leaf=0.0199114
						46:leaf=-0.0116252
				20:[L0_S6_D120<1554.4] yes=31,no=32,missing=31
					31:leaf=0.00663307
					32:leaf=-0.00933463
			12:leaf=0.0097992
booster[8]:
0:[L3_S32_D3852<163.375] yes=1,no=2,missing=1
	1:[L3_S29_D3477<1011.52] yes=3,no=4,missing=3
		3:[L3_S35_D3886<616.945] yes=7,no=8,missing=7
			7:[L1_S24_D1765<762.605] yes=13,no=14,missing=13
				13:[L3_S29_D3316<135.735] yes=21,no=22,missing=21
					21:[L3_S51_D4255<1398.65] yes=33,no=34,missing=33
						33:leaf=-0.0126854
						34:leaf=0.00493461
					22:[L3_S35_D3886<468.79] yes=35,no=36,missing=35
						35:leaf=0.000119751
						36:leaf=-0.0108199
				14:leaf=0.0248855
			8:[L0_S1_D26<634.585] yes=15,no=16,missing=15
				15:[L2_S26_D3037<800.84] yes=23,no=24,missing=23
					23:[L3_S29_D3477<743.25] yes=37,no=38,missing=37
						37:leaf=0.0238042
						38:leaf=0.00677504
					24:leaf=0.045341
				16:[L0_S10_D216<641.935] yes=25,no=26,missing=25
					25:[L0_S11_D280<838.485] yes=39,no=40,missing=39
						39:leaf=-0.0143595
						40:leaf=0.00323967
					26:[L3_S34_D3875<904.165] yes=41,no=42,missing=41
						41:leaf=0.0249079
						42:leaf=-0.0057518
		4:[L0_S3_D70<1476.39] yes=9,no=10,missing=9
			9:[L0_S15_D395<1314.18] yes=17,no=18,missing=17
				17:[L1_S24_D1583<1157.74] yes=27,no=28,missing=27
					27:[L0_S7_D137<1593.03] yes=43,no=44,missing=43
						43:leaf=-0.0149024
						44:leaf=-8.40258e-05
					28:leaf=0.00487834
				18:[L0_S19_D454<1314.24] yes=29,no=30,missing=29
					29:leaf=0.0198875
					30:leaf=-0.00529785
			10:[L3_S33_D3856<1624.42] yes=19,no=20,missing=19
				19:[L0_S5_D115<1499.9] yes=31,no=32,missing=31
					31:leaf=0.0210281
					32:leaf=-0.00226165
				20:leaf=-0.0104763
	2:[L3_S33_D3856<-499915] yes=5,no=6,missing=5
		5:[L3_S29_D3316<956.74] yes=11,no=12,missing=11
			11:leaf=0.123672
			12:leaf=0.0419109
		6:leaf=-0.00398665
booster[9]:
0:[L3_S32_D3852<163.375] yes=1,no=2,missing=1
	1:[L3_S29_D3474<1040.84] yes=3,no=4,missing=3
		3:[L1_S24_D1536<406.485] yes=7,no=8,missing=7
			7:[L2_S26_D3041<711.575] yes=13,no=14,missing=13
				13:[L0_S7_D137<611.105] yes=23,no=24,missing=23
					23:[L3_S34_D3875<135.77] yes=33,no=34,missing=33
						33:leaf=-0.0120821
						34:leaf=-0.00128414
					24:[L3_S29_D3474<905.045] yes=35,no=36,missing=35
						35:leaf=0.0195308
						36:leaf=-0.0119442
				14:[L3_S36_D3919<721.56] yes=25,no=26,missing=25
					25:[L3_S33_D3856<891.695] yes=37,no=38,missing=37
						37:leaf=0.0521038
						38:leaf=-1.52342e-05
					26:[L2_S26_D3041<902.23] yes=39,no=40,missing=39
						39:leaf=-0.0157423
						40:leaf=0.0147284
			8:[L1_S24_D1678<724.635] yes=15,no=16,missing=15
				15:[L3_S36_D3919<493.725] yes=27,no=28,missing=27
					27:[L1_S24_D1813<633.21] yes=41,no=42,missing=41
						41:leaf=0.052072
						42:leaf=0.00825649
					28:[L3_S29_D3474<738.045] yes=43,no=44,missing=43
						43:leaf=-0.0116412
						44:leaf=0.0234472
				16:[L1_S24_D1558<792.225] yes=29,no=30,missing=29
					29:leaf=-0.00951922
					30:leaf=0.012648
		4:[L3_S34_D3875<1205.69] yes=9,no=10,missing=9
			9:[L3_S35_D3886<1154.54] yes=17,no=18,missing=17
				17:leaf=-0.0187029
				18:leaf=-0.00762519
			10:[L3_S30_D3496<1216.58] yes=19,no=20,missing=19
				19:leaf=0.0149204
				20:[L0_S15_D395<1327.74] yes=31,no=32,missing=31
					31:[L0_S7_D137<1574.85] yes=45,no=46,missing=45
						45:leaf=-0.0110078
						46:leaf=0.00202758
					32:[L0_S16_D423<1327.82] yes=47,no=48,missing=47
						47:leaf=0.0131228
						48:leaf=-0.00567402
	2:[L3_S33_D3856<185.945] yes=5,no=6,missing=5
		5:[L3_S29_D3316<1180.77] yes=11,no=12,missing=11
			11:[L0_S0_D1<223.86] yes=21,no=22,missing=21
				21:leaf=0.15016
				22:leaf=0.0536768
			12:leaf=0.0265596
		6:leaf=-0.0102408
booster[10]:
0:[L3_S32_D3852<183.94] yes=1,no=2,missing=1
	1:[L1_S24_D1536<392.445] yes=3,no=4,missing=3
		3:[L3_S29_D3474<937.33] yes=7,no=8,missing=7
			7:[L3_S29_D3319<879.225] yes=13,no=14,missing=13
				13:[L0_S7_D137<339.1] yes=21,no=22,missing=21
					21:[L3_S29_D3319<135.735] yes=35,no=36,missing=35
						35:leaf=-0.0123037
						36:leaf=-0.00280933
					22:[L0_S9_D152<402.225] yes=37,no=38,missing=37
						37:leaf=0.011129
						38:leaf=-0.00746336
				14:[L0_S1_D30<876.98] yes=23,no=24,missing=23
					23:leaf=0.0399094
					24:[L0_S10_D216<885.835] yes=39,no=40,missing=39
						39:leaf=-0.00329002
						40:leaf=0.0200829
			8:[L0_S15_D395<1314.18] yes=15,no=16,missing=15
				15:[L0_S10_D216<1482.17] yes=25,no=26,missing=25
					25:[L0_S7_D137<1574.83] yes=41,no=42,missing=41
						41:leaf=-0.0118465
						42:leaf=0.00480232
					26:[L0_S5_D115<1482.18] yes=43,no=44,missing=43
						43:leaf=0.0173887
						44:leaf=-0.00447315
				16:[L0_S16_D428<1327.82] yes=27,no=28,missing=27
					27:leaf=0.0229811
					28:leaf=-0.0053601
		4:[L1_S24_D1558<703.575] yes=9,no=10,missing=9
			9:[L3_S35_D3886<716.68] yes=17,no=18,missing=17
				17:[L1_S24_D1587<456.87] yes=29,no=30,missing=29
					29:leaf=0.0224218
					30:leaf=-0.010456
				18:leaf=0.0628973
			10:[L1_S24_D1587<762.97] yes=19,no=20,missing=19
				19:[L1_S24_D1674<706.595] yes=31,no=32,missing=31
					31:leaf=-0.013662
					32:[L1_S24_D1811<792.455] yes=45,no=46,missing=45
						45:leaf=0.00959648
						46:leaf=-0.0124525
				20:[L1_S24_D1511<961.49] yes=33,no=34,missing=33
					33:leaf=0.0294937
					34:[L3_S33_D3856<1179.89] yes=47,no=48,missing=47
						47:leaf=-0.00582005
						48:leaf=0.00489349
	2:[L3_S33_D3856<-499907] yes=5,no=6,missing=5
		5:[L3_S29_D3319<913.575] yes=11,no=12,missing=11
			11:leaf=0.106338
			12:leaf=0.0528263
		6:leaf=-0.0033899
booster[11]:
0:[L3_S33_D3856<-499999] yes=1,no=2,missing=1
	1:[L3_S51_D4255<114.72] yes=3,no=4,missing=3
		3:[L3_S36_D3919<232.505] yes=7,no=8,missing=7
			7:leaf=0.0908205
			8:leaf=0.0443127
		4:[L3_S43_D4087<1396.81] yes=9,no=10,missing=9
			9:[L0_S1_D30<551.685] yes=15,no=16,missing=15
				15:[L3_S50_D4244<510.095] yes=25,no=26,missing=25
					25:leaf=-0.00456482
					26:leaf=0.0147563
				16:leaf=-0.015337
			10:leaf=0.0198752
	2:[L3_S29_D3474<1011.52] yes=5,no=6,missing=5
		5:[L3_S29_D3316<157.875] yes=11,no=12,missing=11
			11:[L3_S35_D3886<54.025] yes=17,no=18,missing=17
				17:leaf=-0.0176567
				18:[L3_S31_D3836<-499968] yes=27,no=28,missing=27
					27:leaf=-0.000846737
					28:leaf=-0.0132306
			12:[L1_S24_D1527<772.835] yes=19,no=20,missing=19
				19:[L0_S4_D106<186.645] yes=29,no=30,missing=29
					29:[L0_S18_D437<251.205] yes=39,no=40,missing=39
						39:leaf=0.00650618
						40:leaf=-0.0121434
					30:[L3_S35_D3886<352.18] yes=41,no=42,missing=41
						41:leaf=-0.0102796
						42:leaf=0.0029254
				20:[L1_S24_D1809<795.44] yes=31,no=32,missing=31
					31:[L3_S29_D3474<803.53] yes=43,no=44,missing=43
						43:leaf=0.0153955
						44:leaf=0.0429485
					32:leaf=0.00469208
		6:[L3_S34_D3877<1197.12] yes=13,no=14,missing=13
			13:[L0_S3_D70<1112.89] yes=21,no=22,missing=21
				21:[L1_S25_D1898<1005.59] yes=33,no=34,missing=33
					33:leaf=-0.0180428
					34:leaf=-0.00726235
				22:leaf=-8.72497e-05
			14:[L3_S34_D3877<1290.89] yes=23,no=24,missing=23
				23:[L3_S37_D3942<1266.24] yes=35,no=36,missing=35
					35:[L3_S29_D3316<1216.35] yes=45,no=46,missing=45
						45:leaf=0.0120129
						46:leaf=-0.0152405
					36:leaf=0.0349166
				24:[L3_S36_D3919<1585.21] yes=37,no=38,missing=37
					37:[L0_S10_D216<1482.18] yes=47,no=48,missing=47
						47:leaf=-0.0122238
						48:leaf=0.00142634
					38:[L3_S29_D3316<1641.71] yes=49,no=50,missing=49
						49:leaf=0.0150497
						50:leaf=-0.00553459
booster[12]:
0:[L3_S32_D3852<13.77] yes=1,no=2,missing=1
	1:[L1_S24_D1780<392.46] yes=3,no=4,missing=3
		3:[L3_S29_D3480<1040.84] yes=7,no=8,missing=7
			7:[L2_S26_D3037<800.835] yes=13,no=14,missing=13
				13:[L3_S34_D3875<148.885] yes=21,no=22,missing=21
					21:[L3_S45_D4125<1425.4] yes=33,no=34,missing=33
						33:leaf=-0.0113964
						34:leaf=0.01485
					22:[L3_S30_D3496<235.315] yes=35,no=36,missing=35
						35:leaf=0.00925449
						36:leaf=-0.00175496
				14:[L3_S34_D3875<891.685] yes=23,no=24,missing=23
					23:leaf=0.0375363
					24:[L3_S35_D3891<911.815] yes=37,no=38,missing=37
						37:leaf=0.0116538
						38:leaf=-0.00312874
			8:[L3_S36_D3921<1577.66] yes=15,no=16,missing=15
				15:[L3_S35_D3891<1260.7] yes=25,no=26,missing=25
					25:[L0_S4_D106<1153.62] yes=39,no=40,missing=39
						39:leaf=-0.0154988
						40:leaf=-0.0043797
					26:[L3_S29_D3316<1339.45] yes=41,no=42,missing=41
						41:leaf=0.0191845
						42:leaf=-0.010561
				16:[L3_S29_D3316<1644.26] yes=27,no=28,missing=27
					27:leaf=0.0123549
					28:leaf=-0.00479827
		4:[L2_S26_D3037<996.24] yes=9,no=10,missing=9
			9:[L1_S24_D1558<704.48] yes=17,no=18,missing=17
				17:[L3_S35_D3891<493.625] yes=29,no=30,missing=29
					29:leaf=0.00485947
					30:leaf=0.0607795
				18:[L1_S24_D1511<762.935] yes=31,no=32,missing=31
					31:leaf=-0.00920103
					32:[L1_S24_D1587<775.615] yes=43,no=44,missing=43
						43:leaf=0.0388382
						44:leaf=0.0043131
			10:leaf=-0.015707
	2:[L3_S33_D3856<-499992] yes=5,no=6,missing=5
		5:[L3_S29_D3316<1180.84] yes=11,no=12,missing=11
			11:[L0_S0_D1<244.94] yes=19,no=20,missing=19
				19:leaf=0.0923599
				20:leaf=0.038298
			12:leaf=0.0304031
		6:leaf=0.000581859
