booster[0]:
0:[f639<-1.5] yes=1,no=2,missing=1
	1:[f396<620.6] yes=3,no=4,missing=3
		3:[f56<-0.133] yes=7,no=8,missing=7
			7:[f385<888.605] yes=15,no=16,missing=15
				15:[f256<0.1435] yes=27,no=28,missing=27
					27:[f342<0.131] yes=49,no=50,missing=49
						49:leaf=-0.014582
						50:leaf=0.0106346
					28:[f232<0.0395] yes=51,no=52,missing=51
						51:leaf=-0.00900828
						52:leaf=0.0294405
				16:[f513<889.515] yes=29,no=30,missing=29
					29:leaf=0.0396053
					30:[f563<-95160] yes=53,no=54,missing=53
						53:leaf=0.0299912
						54:leaf=-0.00649467
			8:[f312<0.1935] yes=17,no=18,missing=17
				17:[f50<0.6075] yes=31,no=32,missing=31
					31:[f513<1.195] yes=55,no=56,missing=55
						55:leaf=0.00634282
						56:leaf=-0.0168905
					32:[f714<4091.5] yes=57,no=58,missing=57
						57:leaf=0.0298099
						58:leaf=-0.0142161
				18:[f612<3855] yes=33,no=34,missing=33
					33:leaf=-0.0163651
					34:[f335<-0.0385] yes=59,no=60,missing=59
						59:leaf=-0.0123634
						60:leaf=0.0430008
		4:[f341<-0.23] yes=9,no=10,missing=9
			9:[f364<16.5] yes=19,no=20,missing=19
				19:[f250<0.0075] yes=35,no=36,missing=35
					35:leaf=-0.012849
					36:leaf=0.0198362
				20:[f364<23.5] yes=37,no=38,missing=37
					37:[f628<1.5] yes=61,no=62,missing=61
						61:leaf=0.0337328
						62:leaf=0.155291
					38:leaf=0.00792358
			10:[f230<0.0635] yes=21,no=22,missing=21
				21:[f650<45259.5] yes=39,no=40,missing=39
					39:[f32<-0.0365] yes=63,no=64,missing=63
						63:leaf=-0.0187726
						64:leaf=-0.00011121
					40:[f231<0.0295] yes=65,no=66,missing=65
						65:leaf=-0.0130266
						66:leaf=0.02914
				22:leaf=0.0270182
	2:[f364<14.5] yes=5,no=6,missing=5
		5:[f639<164] yes=11,no=12,missing=11
			11:[f256<-0.2415] yes=23,no=24,missing=23
				23:[f590<1.5] yes=41,no=42,missing=41
					41:[f685<-3656.5] yes=67,no=68,missing=67
						67:leaf=0.123698
						68:leaf=0.0562166
					42:[f685<-537.5] yes=69,no=70,missing=69
						69:leaf=0.384162
						70:leaf=0.158509
				24:[f164<-0.2455] yes=43,no=44,missing=43
					43:leaf=0.86057
					44:[f650<1115.5] yes=71,no=72,missing=71
						71:leaf=0.0538017
						72:leaf=0.308695
			12:[f183<0.0145] yes=25,no=26,missing=25
				25:[f129<0.1475] yes=45,no=46,missing=45
					45:[f437<1628.18] yes=73,no=74,missing=73
						73:leaf=-0.0182822
						74:leaf=0.00986249
					46:leaf=0.00986249
				26:[f202<-0.1025] yes=47,no=48,missing=47
					47:leaf=0.0289615
					48:leaf=-0.0134476
		6:[f81<-500000] yes=13,no=14,missing=13
			13:leaf=1.62458
			14:leaf=0.0535698
booster[1]:
0:[f639<-1.5] yes=1,no=2,missing=1
	1:[f378<627.085] yes=3,no=4,missing=3
		3:[f513<989.44] yes=7,no=8,missing=7
			7:[f393<678.255] yes=15,no=16,missing=15
				15:[f574<-2.16527e+06] yes=29,no=30,missing=29
					29:leaf=0.0164287
					30:[f355<0.1945] yes=49,no=50,missing=49
						49:leaf=-0.015856
						50:leaf=0.0110586
				16:[f519<684.415] yes=31,no=32,missing=31
					31:[f567<-3213.5] yes=51,no=52,missing=51
						51:leaf=0.0571957
						52:leaf=-0.00615623
					32:[f566<59093] yes=53,no=54,missing=53
						53:leaf=-0.0123228
						54:leaf=-0.00292413
			8:[f449<1609.22] yes=17,no=18,missing=17
				17:[f383<1599.7] yes=33,no=34,missing=33
					33:[f455<1415.44] yes=55,no=56,missing=55
						55:leaf=-0.0178265
						56:leaf=-0.00650335
					34:[f555<-83047] yes=57,no=58,missing=57
						57:leaf=0.0332532
						58:leaf=-0.0092646
				18:[f170<0.0325] yes=35,no=36,missing=35
					35:[f267<-0.04] yes=59,no=60,missing=59
						59:leaf=-5.75368e-05
						60:leaf=-0.0110163
					36:leaf=0.0468968
		4:[f341<-0.23] yes=9,no=10,missing=9
			9:[f364<16] yes=19,no=20,missing=19
				19:[f337<-0.0035] yes=37,no=38,missing=37
					37:leaf=0.0193967
					38:leaf=-0.0125256
				20:[f364<23.5] yes=39,no=40,missing=39
					39:[f60<-0.0035] yes=61,no=62,missing=61
						61:leaf=0.171759
						62:leaf=0.0354633
					40:leaf=0.00692815
			10:[f230<0.063] yes=21,no=22,missing=21
				21:[f650<9318.5] yes=41,no=42,missing=41
					41:[f656<16604.5] yes=63,no=64,missing=63
						63:leaf=-0.0186292
						64:leaf=-7.0179e-05
					42:[f316<0.002] yes=65,no=66,missing=65
						65:leaf=-0.0145443
						66:leaf=0.0239939
				22:leaf=0.0177517
	2:[f639<164] yes=5,no=6,missing=5
		5:[f364<14.5] yes=11,no=12,missing=11
			11:[f516<393.015] yes=23,no=24,missing=23
				23:[f615<-1.5] yes=43,no=44,missing=43
					43:[f582<1.5] yes=67,no=68,missing=67
						67:leaf=0.157355
						68:leaf=0.509523
					44:[f519<322.165] yes=69,no=70,missing=69
						69:leaf=0.0823871
						70:leaf=0.206438
				24:[f638<1849.5] yes=45,no=46,missing=45
					45:[f105<0.006] yes=71,no=72,missing=71
						71:leaf=0.0991891
						72:leaf=0.0177044
					46:[f379<1377.06] yes=73,no=74,missing=73
						73:leaf=0.159472
						74:leaf=0.0732896
			12:[f378<1420.31] yes=25,no=26,missing=25
				25:leaf=0.487933
				26:leaf=0.0615856
		6:[f369<1295.88] yes=13,no=14,missing=13
			13:[f567<-115130] yes=27,no=28,missing=27
				27:leaf=0.00988495
				28:[f129<0.1475] yes=47,no=48,missing=47
					47:[f31<0.1735] yes=75,no=76,missing=75
						75:leaf=-0.0187032
						76:leaf=-0.00174612
					48:leaf=0.00887612
			14:leaf=0.00992569
booster[2]:
0:[f651<-1.5] yes=1,no=2,missing=1
	1:[f378<620.6] yes=3,no=4,missing=3
		3:[f513<989.565] yes=7,no=8,missing=7
			7:[f513<879.605] yes=15,no=16,missing=15
				15:[f192<0.0465] yes=29,no=30,missing=29
					29:[f398<802.365] yes=53,no=54,missing=53
						53:leaf=-0.0152034
						54:leaf=0.0125957
					30:[f125<0.135] yes=55,no=56,missing=55
						55:leaf=-0.00685868
						56:leaf=0.0374585
				16:[f691<-1.5] yes=31,no=32,missing=31
					31:[f118<0.025] yes=57,no=58,missing=57
						57:leaf=-0.0116301
						58:leaf=0.00309504
					32:[f653<-1.5] yes=59,no=60,missing=59
						59:leaf=-0.00635879
						60:leaf=0.10649
			8:[f403<1615.26] yes=17,no=18,missing=17
				17:[f198<0.261] yes=33,no=34,missing=33
					33:[f369<1599.73] yes=61,no=62,missing=61
						61:leaf=-0.0176205
						62:leaf=-0.000369951
					34:leaf=0.00798794
				18:[f571<-9889] yes=35,no=36,missing=35
					35:leaf=0.02882
					36:leaf=-0.013888
		4:[f80<-0.218] yes=9,no=10,missing=9
			9:[f118<-0.0645] yes=19,no=20,missing=19
				19:[f50<-0.0735] yes=37,no=38,missing=37
					37:[f652<2489] yes=63,no=64,missing=63
						63:leaf=0.108423
						64:leaf=-9.78736e-05
					38:leaf=-0.0103796
				20:leaf=-0.0130293
			10:[f133<0.0305] yes=21,no=22,missing=21
				21:[f47<-0.0345] yes=39,no=40,missing=39
					39:leaf=-0.0189801
					40:leaf=-5.75651e-05
				22:leaf=0.00993472
	2:[f651<604] yes=5,no=6,missing=5
		5:[f159<-0.0935] yes=11,no=12,missing=11
			11:[f516<489.855] yes=23,no=24,missing=23
				23:[f615<-1.5] yes=41,no=42,missing=41
					41:[f12<-0.051] yes=65,no=66,missing=65
						65:leaf=0.125299
						66:leaf=0.320446
					42:[f487<172.655] yes=67,no=68,missing=67
						67:leaf=0.0170056
						68:leaf=0.140475
				24:[f65<0.0315] yes=43,no=44,missing=43
					43:[f633<-60] yes=69,no=70,missing=69
						69:leaf=-0.0163313
						70:leaf=0.0831205
					44:[f272<0.0145] yes=71,no=72,missing=71
						71:leaf=0.164526
						72:leaf=0.0169016
			12:[f399<129.8] yes=25,no=26,missing=25
				25:[f513<1409.43] yes=45,no=46,missing=45
					45:[f272<-0.008] yes=73,no=74,missing=73
						73:leaf=0.340125
						74:leaf=0.102757
					46:leaf=0.059404
				26:[f634<5241] yes=47,no=48,missing=47
					47:leaf=0.00792457
					48:leaf=0.107934
		6:[f393<6.43] yes=13,no=14,missing=13
			13:leaf=0.0197837
			14:[f25<0.038] yes=27,no=28,missing=27
				27:[f583<-393498] yes=49,no=50,missing=49
					49:leaf=0.00912557
					50:[f255<0.1605] yes=75,no=76,missing=75
						75:leaf=-0.0169599
						76:leaf=0.00358324
				28:[f35<0.003] yes=51,no=52,missing=51
					51:leaf=-0.01532
					52:leaf=0.0358326
booster[3]:
0:[f639<-17] yes=1,no=2,missing=1
	1:[f378<620.53] yes=3,no=4,missing=3
		3:[f56<-0.1625] yes=7,no=8,missing=7
			7:[f442<704.495] yes=15,no=16,missing=15
				15:[f141<0.034] yes=29,no=30,missing=29
					29:[f342<0.156] yes=49,no=50,missing=49
						49:leaf=-0.0165385
						50:leaf=0.0118367
					30:[f215<-0.0925] yes=51,no=52,missing=51
						51:leaf=0.036006
						52:leaf=-0.0120191
				16:[f569<1.03863e+06] yes=31,no=32,missing=31
					31:[f431<944.36] yes=53,no=54,missing=53
						53:leaf=-0.0100597
						54:leaf=0.0262539
					32:leaf=0.0337119
			8:[f447<1609.21] yes=17,no=18,missing=17
				17:[f190<0.1055] yes=33,no=34,missing=33
					33:[f17<0.0435] yes=55,no=56,missing=55
						55:leaf=-0.0165324
						56:leaf=0.00294457
					34:leaf=0.00728264
				18:[f170<0.0325] yes=35,no=36,missing=35
					35:leaf=-0.0136813
					36:leaf=0.0386754
		4:[f393<629.93] yes=9,no=10,missing=9
			9:[f364<16] yes=19,no=20,missing=19
				19:leaf=0.00137207
				20:[f650<1553] yes=37,no=38,missing=37
					37:leaf=0.0095773
					38:[f618<65186] yes=57,no=58,missing=57
						57:leaf=0.159558
						58:leaf=0.0297454
			10:[f187<-0.0005] yes=21,no=22,missing=21
				21:[f300<-0.0845] yes=39,no=40,missing=39
					39:[f321<0.0235] yes=59,no=60,missing=59
						59:leaf=-0.015592
						60:leaf=0.00546719
					40:leaf=0.0199363
				22:leaf=0.023956
	2:[f639<164] yes=5,no=6,missing=5
		5:[f364<14.5] yes=11,no=12,missing=11
			11:[f489<406.44] yes=23,no=24,missing=23
				23:[f638<1030] yes=41,no=42,missing=41
					41:[f684<-84181.5] yes=61,no=62,missing=61
						61:leaf=0.143434
						62:leaf=0.0476831
					42:[f320<0.0615] yes=63,no=64,missing=63
						63:leaf=0.153716
						64:leaf=0.0877585
				24:[f164<-0.2625] yes=43,no=44,missing=43
					43:[f164<-0.3075] yes=65,no=66,missing=65
						65:leaf=0.15105
						66:leaf=0.444016
					44:[f432<758.655] yes=67,no=68,missing=67
						67:leaf=0.156508
						68:leaf=0.0578935
			12:[f399<257.4] yes=25,no=26,missing=25
				25:leaf=0.2482
				26:leaf=0.0241892
		6:[f173<0.2625] yes=13,no=14,missing=13
			13:[f87<0.0235] yes=27,no=28,missing=27
				27:[f129<0.1475] yes=45,no=46,missing=45
					45:[f691<-565104] yes=69,no=70,missing=69
						69:leaf=-7.17432e-05
						70:leaf=-0.0186294
					46:leaf=0.00989149
				28:[f583<-2198.5] yes=47,no=48,missing=47
					47:leaf=0.0262187
					48:leaf=-0.0122557
			14:leaf=0.0166702
booster[4]:
0:[f697<-1.5] yes=1,no=2,missing=1
	1:[f378<620.6] yes=3,no=4,missing=3
		3:[f513<989.565] yes=7,no=8,missing=7
			7:[f393<793.055] yes=15,no=16,missing=15
				15:[f232<0.0735] yes=29,no=30,missing=29
					29:[f319<0.0335] yes=53,no=54,missing=53
						53:leaf=-0.0153254
						54:leaf=-0.00276798
					30:[f633<-1.5] yes=55,no=56,missing=55
						55:leaf=-0.00927035
						56:leaf=0.0265103
				16:[f691<-2.5] yes=31,no=32,missing=31
					31:[f465<793.075] yes=57,no=58,missing=57
						57:leaf=0.0353656
						58:leaf=-0.00949458
					32:[f467<943.31] yes=59,no=60,missing=59
						59:leaf=0.00022517
						60:leaf=0.103072
			8:[f595<2.25146e+06] yes=17,no=18,missing=17
				17:[f447<1609.22] yes=33,no=34,missing=33
					33:[f383<1599.7] yes=61,no=62,missing=61
						61:leaf=-0.0173636
						62:leaf=-0.00612221
					34:[f251<-0.052] yes=63,no=64,missing=63
						63:leaf=-0.0139712
						64:leaf=0.0341899
				18:leaf=0.0199153
		4:[f341<-0.23] yes=9,no=10,missing=9
			9:[f364<16.5] yes=19,no=20,missing=19
				19:[f685<-65507] yes=35,no=36,missing=35
					35:leaf=0.0199156
					36:leaf=-0.0135248
				20:[f364<23.5] yes=37,no=38,missing=37
					37:[f650<1131] yes=65,no=66,missing=65
						65:leaf=0.0173292
						66:leaf=0.132103
					38:leaf=-0.00317357
			10:[f234<0.0015] yes=21,no=22,missing=21
				21:[f207<-0.093] yes=39,no=40,missing=39
					39:[f113<0.3075] yes=67,no=68,missing=67
						67:leaf=-0.0187792
						68:leaf=-0.00339867
					40:leaf=0.00993106
				22:leaf=0.0172969
	2:[f697<604] yes=5,no=6,missing=5
		5:[f467<373.795] yes=11,no=12,missing=11
			11:[f671<-1.5] yes=23,no=24,missing=23
				23:[f489<406.385] yes=41,no=42,missing=41
					41:[f642<1.5] yes=69,no=70,missing=69
						69:leaf=0.0617165
						70:leaf=0.195544
					42:[f139<-0.047] yes=71,no=72,missing=71
						71:leaf=0.306061
						72:leaf=0.0833861
				24:[f544<175.365] yes=43,no=44,missing=43
					43:[f566<3845] yes=73,no=74,missing=73
						73:leaf=0.00516045
						74:leaf=0.0584562
					44:[f684<40.5] yes=75,no=76,missing=75
						75:leaf=0.0386176
						76:leaf=0.123311
			12:[f378<441.22] yes=25,no=26,missing=25
				25:[f633<-60] yes=45,no=46,missing=45
					45:leaf=-0.0163326
					46:[f559<-1152] yes=77,no=78,missing=77
						77:leaf=0.180239
						78:leaf=0.070432
				26:[f419<889.56] yes=47,no=48,missing=47
					47:[f153<0.1025] yes=79,no=80,missing=79
						79:leaf=0.182448
						80:leaf=0.0424716
					48:leaf=0.0152958
		6:[f326<0.423] yes=13,no=14,missing=13
			13:[f665<-2583.5] yes=27,no=28,missing=27
				27:[f19<-0.0215] yes=49,no=50,missing=49
					49:leaf=-0.0147043
					50:leaf=0.029936
				28:[f76<0.136] yes=51,no=52,missing=51
					51:[f105<-500000] yes=81,no=82,missing=81
						81:leaf=-0.00335123
						82:leaf=-0.0188971
					52:leaf=0.00383201
			14:leaf=0.014997
booster[5]:
0:[f639<-16.5] yes=1,no=2,missing=1
	1:[f378<620.6] yes=3,no=4,missing=3
		3:[f474<978.095] yes=7,no=8,missing=7
			7:[f366<944.355] yes=15,no=16,missing=15
				15:[f388<838.165] yes=29,no=30,missing=29
					29:[f574<-2.16527e+06] yes=51,no=52,missing=51
						51:leaf=0.0146859
						52:leaf=-0.0146874
					30:[f677<782043] yes=53,no=54,missing=53
						53:leaf=-0.00775601
						54:leaf=0.0467012
				16:leaf=0.0266115
			8:[f447<1609.22] yes=17,no=18,missing=17
				17:[f424<1313.44] yes=31,no=32,missing=31
					31:[f237<0.2205] yes=55,no=56,missing=55
						55:leaf=-0.017768
						56:leaf=0.0043053
					32:[f28<0.1255] yes=57,no=58,missing=57
						57:leaf=-0.0127739
						58:leaf=0.0216611
				18:[f715<-1.5] yes=33,no=34,missing=33
					33:[f360<-0.053] yes=59,no=60,missing=59
						59:leaf=-0.0119504
						60:leaf=-5.95923e-05
					34:leaf=0.0287116
		4:[f393<638.995] yes=9,no=10,missing=9
			9:[f650<1136] yes=19,no=20,missing=19
				19:leaf=-0.0116789
				20:[f151<-0.066] yes=35,no=36,missing=35
					35:[f159<0.0035] yes=61,no=62,missing=61
						61:leaf=0.157817
						62:leaf=0.0367616
					36:leaf=0.00267031
			10:[f92<-0.0415] yes=21,no=22,missing=21
				21:[f341<0.079] yes=37,no=38,missing=37
					37:[f593<-6776.5] yes=63,no=64,missing=63
						63:leaf=-5.97586e-05
						64:leaf=-0.0186996
					38:[f583<-10225] yes=65,no=66,missing=65
						65:leaf=-0.0142198
						66:leaf=0.0299278
				22:[f272<0.0005] yes=39,no=40,missing=39
					39:leaf=0.0390126
					40:leaf=-0.0116551
	2:[f639<164] yes=5,no=6,missing=5
		5:[f378<13.92] yes=11,no=12,missing=11
			11:[f70<0.1265] yes=23,no=24,missing=23
				23:[f638<532.5] yes=41,no=42,missing=41
					41:[f685<-2942] yes=67,no=68,missing=67
						67:leaf=0.0762533
						68:leaf=0.0285977
					42:[f685<-853.5] yes=69,no=70,missing=69
						69:leaf=0.131439
						70:leaf=0.0804532
				24:[f162<0.1595] yes=43,no=44,missing=43
					43:leaf=0.269757
					44:leaf=0.0724222
			12:[f342<-500000] yes=25,no=26,missing=25
				25:[f341<-0.059] yes=45,no=46,missing=45
					45:[f76<-0.0065] yes=71,no=72,missing=71
						71:leaf=0.177868
						72:leaf=0.047194
					46:[f43<0.0095] yes=73,no=74,missing=73
						73:leaf=0.00292485
						74:leaf=0.0888908
				26:leaf=-0.0109591
		6:[f369<1289.5] yes=13,no=14,missing=13
			13:[f87<0.0235] yes=27,no=28,missing=27
				27:[f685<-161267] yes=47,no=48,missing=47
					47:leaf=0.00064715
					48:[f633<-6832.5] yes=75,no=76,missing=75
						75:leaf=-0.00240004
						76:leaf=-0.0197205
				28:[f266<-0.114] yes=49,no=50,missing=49
					49:leaf=0.0298892
					50:leaf=-0.0127447
			14:leaf=0.019887
booster[6]:
0:[f639<-1.5] yes=1,no=2,missing=1
	1:[f378<620.6] yes=3,no=4,missing=3
		3:[f513<989.44] yes=7,no=8,missing=7
			7:[f388<838.165] yes=15,no=16,missing=15
				15:[f9<0.1375] yes=29,no=30,missing=29
					29:[f133<0.1435] yes=55,no=56,missing=55
						55:leaf=-0.0141929
						56:leaf=0.0148858
					30:[f323<0.0145] yes=57,no=58,missing=57
						57:leaf=-0.00773264
						58:leaf=0.026519
				16:[f118<0.0355] yes=31,no=32,missing=31
					31:[f691<-79127.5] yes=59,no=60,missing=59
						59:leaf=0.0187042
						60:leaf=-0.00988641
					32:[f230<0.121] yes=61,no=62,missing=61
						61:leaf=0.00313862
						62:leaf=0.0837457
			8:[f392<1615.26] yes=17,no=18,missing=17
				17:[f380<1415.55] yes=33,no=34,missing=33
					33:[f50<0.5825] yes=63,no=64,missing=63
						63:leaf=-0.017586
						64:leaf=-0.00210334
					34:[f564<5559] yes=65,no=66,missing=65
						65:leaf=-0.0142621
						66:leaf=0.0373077
				18:[f391<1628.74] yes=35,no=36,missing=35
					35:leaf=0.033943
					36:[f106<-0.2555] yes=67,no=68,missing=67
						67:leaf=0.00595248
						68:leaf=-0.017506
		4:[f341<-0.23] yes=9,no=10,missing=9
			9:[f364<16] yes=19,no=20,missing=19
				19:[f10<-0.017] yes=37,no=38,missing=37
					37:leaf=0.0243094
					38:leaf=-0.0125612
				20:[f159<0.0035] yes=39,no=40,missing=39
					39:[f35<0.0015] yes=69,no=70,missing=69
						69:leaf=0.0439518
						70:leaf=0.167575
					40:[f379<620.5] yes=71,no=72,missing=71
						71:leaf=0.0474464
						72:leaf=-0.0112217
			10:[f238<-0.08] yes=21,no=22,missing=21
				21:[f210<-0.2795] yes=41,no=42,missing=41
					41:[f60<-0.1045] yes=73,no=74,missing=73
						73:leaf=-5.55201e-05
						74:leaf=-0.0186888
					42:leaf=0.00994419
				22:[f685<-13542.5] yes=43,no=44,missing=43
					43:leaf=-0.0135388
					44:leaf=0.039906
	2:[f639<164] yes=5,no=6,missing=5
		5:[f341<-0.0345] yes=11,no=12,missing=11
			11:[f513<1432.6] yes=23,no=24,missing=23
				23:[f615<-1.5] yes=45,no=46,missing=45
					45:[f0<0.056] yes=75,no=76,missing=75
						75:leaf=0.148942
						76:leaf=-0.00189284
					46:[f465<610.875] yes=77,no=78,missing=77
						77:leaf=0.0541137
						78:leaf=0.130507
				24:[f141<0.046] yes=47,no=48,missing=47
					47:[f211<0.4075] yes=79,no=80,missing=79
						79:leaf=0.0012495
						80:leaf=0.0578121
					48:[f206<-0.168] yes=81,no=82,missing=81
						81:leaf=0.0978928
						82:leaf=-0.0121827
			12:[f162<-0.3215] yes=25,no=26,missing=25
				25:[f638<2302] yes=49,no=50,missing=49
					49:[f174<0.049] yes=83,no=84,missing=83
						83:leaf=0.0451976
						84:leaf=0.0180582
					50:[f685<-278.5] yes=85,no=86,missing=85
						85:leaf=0.105374
						86:leaf=0.060207
				26:[f164<-0.2745] yes=51,no=52,missing=51
					51:leaf=0.242196
					52:[f80<-0.061] yes=87,no=88,missing=87
						87:leaf=0.0176824
						88:leaf=0.112132
		6:[f691<-527812] yes=13,no=14,missing=13
			13:leaf=0.0141324
			14:[f238<0.1295] yes=27,no=28,missing=27
				27:[f173<0.3235] yes=53,no=54,missing=53
					53:[f80<0.198] yes=89,no=90,missing=89
						89:leaf=-0.018896
						90:leaf=-0.00519175
					54:leaf=0.00992688
				28:leaf=0.00762677
booster[7]:
0:[f639<-16.5] yes=1,no=2,missing=1
	1:[f378<620.53] yes=3,no=4,missing=3
		3:[f56<-0.133] yes=7,no=8,missing=7
			7:[f487<708.535] yes=15,no=16,missing=15
				15:[f634<-1.93229e+06] yes=29,no=30,missing=29
					29:leaf=0.0111332
					30:[f88<0.0255] yes=55,no=56,missing=55
						55:leaf=-0.0161676
						56:leaf=-0.0045994
				16:[f569<1.03863e+06] yes=31,no=32,missing=31
					31:[f199<0.254] yes=57,no=58,missing=57
						57:leaf=-0.00899747
						58:leaf=0.0393233
					32:leaf=0.0406666
			8:[f442<1.225] yes=17,no=18,missing=17
				17:[f268<-0.1295] yes=33,no=34,missing=33
					33:leaf=-0.0105452
					34:leaf=0.0298826
				18:[f449<1609.22] yes=35,no=36,missing=35
					35:[f133<0.0315] yes=59,no=60,missing=59
						59:leaf=-0.0166594
						60:leaf=-0.0092224
					36:[f684<10032.5] yes=61,no=62,missing=61
						61:leaf=0.0398547
						62:leaf=-0.0140108
		4:[f80<-500000] yes=9,no=10,missing=9
			9:[f606<3432.5] yes=19,no=20,missing=19
				19:[f268<-0.0195] yes=37,no=38,missing=37
					37:leaf=0.0414737
					38:[f638<408.5] yes=63,no=64,missing=63
						63:leaf=0.00986657
						64:leaf=-0.0146446
				20:[f159<0.0095] yes=39,no=40,missing=39
					39:leaf=0.124768
					40:leaf=0.0191696
			10:[f385<1207.49] yes=21,no=22,missing=21
				21:[f337<-0.0775] yes=41,no=42,missing=41
					41:leaf=0.00989507
					42:[f673<-60446] yes=65,no=66,missing=65
						65:leaf=-7.97902e-05
						66:leaf=-0.0185529
				22:[f567<-5900.5] yes=43,no=44,missing=43
					43:[f81<0.0345] yes=67,no=68,missing=67
						67:leaf=-0.0148647
						68:leaf=0.00992792
					44:leaf=0.0368527
	2:[f639<164] yes=5,no=6,missing=5
		5:[f341<-0.108] yes=11,no=12,missing=11
			11:[f467<1431.46] yes=23,no=24,missing=23
				23:[f3<0.0475] yes=45,no=46,missing=45
					45:[f30<0.1035] yes=69,no=70,missing=69
						69:leaf=0.123897
						70:leaf=0.0231232
					46:[f609<-1582.5] yes=71,no=72,missing=71
						71:leaf=0.0771815
						72:leaf=-0.00555288
				24:[f664<4.5] yes=47,no=48,missing=47
					47:[f626<2755.5] yes=73,no=74,missing=73
						73:leaf=-0.0121915
						74:leaf=0.0277745
					48:leaf=0.0466191
			12:[f34<768.5] yes=25,no=26,missing=25
				25:[f166<-0.0305] yes=49,no=50,missing=49
					49:[f70<-500000] yes=75,no=76,missing=75
						75:leaf=0.0945483
						76:leaf=0.205331
					50:[f249<0.0685] yes=77,no=78,missing=77
						77:leaf=0.0050333
						78:leaf=0.0599458
				26:[f638<296] yes=51,no=52,missing=51
					51:[f474<1272.32] yes=79,no=80,missing=79
						79:leaf=0.0151305
						80:leaf=0.0558602
					52:[f12<0.1085] yes=81,no=82,missing=81
						81:leaf=0.0556386
						82:leaf=0.0991703
		6:[f87<0.0545] yes=13,no=14,missing=13
			13:[f182<0.1155] yes=27,no=28,missing=27
				27:[f293<0.0855] yes=53,no=54,missing=53
					53:[f437<1374.56] yes=83,no=84,missing=83
						83:leaf=-0.0188622
						84:leaf=-0.00440868
					54:leaf=0.00475593
				28:leaf=0.00555693
			14:leaf=0.00972365
booster[8]:
0:[f639<-1.5] yes=1,no=2,missing=1
	1:[f378<620.6] yes=3,no=4,missing=3
		3:[f474<971.925] yes=7,no=8,missing=7
			7:[f487<773.925] yes=15,no=16,missing=15
				15:[f321<0.21] yes=29,no=30,missing=29
					29:[f574<-2.16527e+06] yes=51,no=52,missing=51
						51:leaf=0.0158653
						52:leaf=-0.0152157
					30:[f155<-0.0625] yes=53,no=54,missing=53
						53:leaf=-0.0112054
						54:leaf=0.034375
				16:[f293<0.1205] yes=31,no=32,missing=31
					31:[f436<944.36] yes=55,no=56,missing=55
						55:leaf=-0.00944173
						56:leaf=0.0323144
					32:leaf=0.039829
			8:[f447<1610.1] yes=17,no=18,missing=17
				17:[f403<1615.26] yes=33,no=34,missing=33
					33:[f295<0.318] yes=57,no=58,missing=57
						57:leaf=-0.0172061
						58:leaf=0.00923471
					34:[f399<1630.94] yes=59,no=60,missing=59
						59:leaf=0.0298909
						60:leaf=-0.014177
				18:[f639<-6170.5] yes=35,no=36,missing=35
					35:leaf=-0.0125473
					36:leaf=0.028152
		4:[f341<-0.23] yes=9,no=10,missing=9
			9:[f118<-0.0645] yes=19,no=20,missing=19
				19:[f64<0.015] yes=37,no=38,missing=37
					37:[f65<0.0005] yes=61,no=62,missing=61
						61:leaf=0.0251733
						62:leaf=0.109216
					38:leaf=-0.00433359
				20:leaf=-0.0126311
			10:[f230<0.0635] yes=21,no=22,missing=21
				21:[f578<6984] yes=39,no=40,missing=39
					39:[f345<0.204] yes=63,no=64,missing=63
						63:leaf=-0.0175321
						64:leaf=0.00824128
					40:leaf=0.00994353
				22:leaf=0.0273336
	2:[f639<164] yes=5,no=6,missing=5
		5:[f153<0.0585] yes=11,no=12,missing=11
			11:[f615<-1.5] yes=23,no=24,missing=23
				23:[f626<1.5] yes=41,no=42,missing=41
					41:[f474<337.515] yes=65,no=66,missing=65
						65:leaf=0.00941596
						66:leaf=0.105019
					42:[f319<0.0375] yes=67,no=68,missing=67
						67:leaf=0.139534
						68:leaf=0.00812909
				24:[f487<338.335] yes=43,no=44,missing=43
					43:[f684<2531] yes=69,no=70,missing=69
						69:leaf=0.0100165
						70:leaf=0.0468959
					44:[f684<112.5] yes=71,no=72,missing=71
						71:leaf=0.0290789
						72:leaf=0.0969719
			12:[f341<-0.331] yes=25,no=26,missing=25
				25:[f118<0.01] yes=45,no=46,missing=45
					45:[f154<0.155] yes=73,no=74,missing=73
						73:leaf=0.118901
						74:leaf=0.0308484
					46:leaf=0.0275277
				26:[f149<0.105] yes=47,no=48,missing=47
					47:[f90<0.0505] yes=75,no=76,missing=75
						75:leaf=0.0360984
						76:leaf=0.0728525
					48:[f267<-0.1075] yes=77,no=78,missing=77
						77:leaf=0.144746
						78:leaf=0.042577
		6:[f709<2.29124e+06] yes=13,no=14,missing=13
			13:[f554<127380] yes=27,no=28,missing=27
				27:[f183<0.0515] yes=49,no=50,missing=49
					49:[f293<0.0855] yes=79,no=80,missing=79
						79:leaf=-0.0185304
						80:leaf=0.00518539
					50:leaf=0.0093257
				28:leaf=0.00988596
			14:leaf=0.0198635
booster[9]:
0:[f639<-81.5] yes=1,no=2,missing=1
	1:[f378<620.6] yes=3,no=4,missing=3
		3:[f56<-0.1385] yes=7,no=8,missing=7
			7:[f442<878.885] yes=15,no=16,missing=15
				15:[f256<0.1475] yes=31,no=32,missing=31
					31:[f395<1414.18] yes=59,no=60,missing=59
						59:leaf=-0.014536
						60:leaf=0.0204717
					32:[f639<-63065.5] yes=61,no=62,missing=61
						61:leaf=0.03051
						62:leaf=-0.00732495
				16:[f60<0.0515] yes=33,no=34,missing=33
					33:[f356<-0.0005] yes=63,no=64,missing=63
						63:leaf=-0.0123761
						64:leaf=0.00515607
					34:[f665<-64685.5] yes=65,no=66,missing=65
						65:leaf=0.0303916
						66:leaf=-0.00134032
			8:[f391<1615.23] yes=17,no=18,missing=17
				17:[f513<1.175] yes=35,no=36,missing=35
					35:leaf=0.00853474
					36:[f143<0.0035] yes=67,no=68,missing=67
						67:leaf=-0.0163587
						68:leaf=0.00387969
				18:[f24<0.321] yes=37,no=38,missing=37
					37:[f572<2400.5] yes=69,no=70,missing=69
						69:leaf=0.00742206
						70:leaf=-0.0175738
					38:leaf=0.0458719
		4:[f393<638.995] yes=9,no=10,missing=9
			9:[f159<0.0005] yes=19,no=20,missing=19
				19:[f606<2.5] yes=39,no=40,missing=39
					39:leaf=0.025534
					40:leaf=0.117799
				20:[f487<768.13] yes=41,no=42,missing=41
					41:leaf=0.0397962
					42:leaf=-0.0140424
			10:[f687<-13440] yes=21,no=22,missing=21
				21:[f227<0.009] yes=43,no=44,missing=43
					43:leaf=-0.0121613
					44:leaf=0.0443154
				22:[f721<-66275.5] yes=45,no=46,missing=45
					45:leaf=0.00988039
					46:[f345<0.204] yes=71,no=72,missing=71
						71:leaf=-0.0188807
						72:leaf=0.00774852
	2:[f639<700] yes=5,no=6,missing=5
		5:[f685<-971.5] yes=11,no=12,missing=11
			11:[f379<574.69] yes=23,no=24,missing=23
				23:[f393<63.295] yes=47,no=48,missing=47
					47:[f684<134] yes=73,no=74,missing=73
						73:leaf=0.0810012
						74:leaf=0.150692
					48:[f164<-0.3075] yes=75,no=76,missing=75
						75:leaf=0.0715672
						76:leaf=0.142258
				24:[f341<-0.335] yes=49,no=50,missing=49
					49:[f435<630.385] yes=77,no=78,missing=77
						77:leaf=0.00799992
						78:leaf=0.0994181
					50:[f615<-1.5] yes=79,no=80,missing=79
						79:leaf=0.0296236
						80:leaf=0.132282
			12:[f650<87] yes=25,no=26,missing=25
				25:[f685<490006] yes=51,no=52,missing=51
					51:[f566<-616744] yes=81,no=82,missing=81
						81:leaf=0.0910611
						82:leaf=0.0114215
					52:[f446<4.475] yes=83,no=84,missing=83
						83:leaf=0.0281483
						84:leaf=0.127768
				26:[f341<-0.108] yes=53,no=54,missing=53
					53:[f399<1376.77] yes=85,no=86,missing=85
						85:leaf=0.0954105
						86:leaf=0.0139788
					54:[f121<-0.0355] yes=87,no=88,missing=87
						87:leaf=0.0832721
						88:leaf=0.0474181
		6:[f400<374.365] yes=13,no=14,missing=13
			13:[f633<-6832.5] yes=27,no=28,missing=27
				27:leaf=0.00247552
				28:[f337<0.1165] yes=55,no=56,missing=55
					55:[f85<-0.1845] yes=89,no=90,missing=89
						89:leaf=-0.0196044
						90:leaf=-6.29049e-05
					56:leaf=-6.60038e-05
			14:[f393<534.37] yes=29,no=30,missing=29
				29:leaf=0.0253635
				30:[f250<-0.1305] yes=57,no=58,missing=57
					57:leaf=0.0180514
					58:[f626<61404] yes=91,no=92,missing=91
						91:leaf=-0.0178799
						92:leaf=-6.35112e-05
booster[10]:
0:[f697<-1.5] yes=1,no=2,missing=1
	1:[f378<638.895] yes=3,no=4,missing=3
		3:[f56<-0.1155] yes=7,no=8,missing=7
			7:[f385<886.105] yes=15,no=16,missing=15
				15:[f155<0.0705] yes=29,no=30,missing=29
					29:[f395<1413.84] yes=51,no=52,missing=51
						51:leaf=-0.0131204
						52:leaf=0.0211442
					30:[f45<-0.03] yes=53,no=54,missing=53
						53:leaf=0.0329019
						54:leaf=-0.0113275
				16:[f691<-1.5] yes=31,no=32,missing=31
					31:[f465<890.935] yes=55,no=56,missing=55
						55:leaf=0.0207912
						56:leaf=-0.00815495
					32:leaf=0.0509414
			8:[f12<0.2435] yes=17,no=18,missing=17
				17:[f15<0.2605] yes=33,no=34,missing=33
					33:[f697<-32.5] yes=57,no=58,missing=57
						57:leaf=-0.0163668
						58:leaf=0.0182692
					34:leaf=0.0155777
				18:[f266<0.1435] yes=35,no=36,missing=35
					35:[f691<-4.5] yes=59,no=60,missing=59
						59:leaf=-0.0137828
						60:leaf=0.0254575
					36:[f170<-0.1215] yes=61,no=62,missing=61
						61:leaf=-0.00731361
						62:leaf=0.0533369
		4:[f393<689.94] yes=9,no=10,missing=9
			9:[f364<16] yes=19,no=20,missing=19
				19:leaf=-0.0142326
				20:[f364<25] yes=37,no=38,missing=37
					37:[f228<-0.0005] yes=63,no=64,missing=63
						63:leaf=0.0160402
						64:leaf=0.107293
					38:leaf=-0.0109664
			10:[f664<59358] yes=21,no=22,missing=21
				21:[f248<-0.0055] yes=39,no=40,missing=39
					39:[f385<1207.49] yes=65,no=66,missing=65
						65:leaf=-0.010338
						66:leaf=0.0343765
					40:[f250<0.1455] yes=67,no=68,missing=67
						67:leaf=-0.0186683
						68:leaf=-6.16233e-05
				22:leaf=0.0302254
	2:[f697<604] yes=5,no=6,missing=5
		5:[f320<0.0615] yes=11,no=12,missing=11
			11:[f615<-1.5] yes=23,no=24,missing=23
				23:[f684<821] yes=41,no=42,missing=41
					41:[f513<701.29] yes=69,no=70,missing=69
						69:leaf=0.0274148
						70:leaf=0.0929708
					42:[f467<205.715] yes=71,no=72,missing=71
						71:leaf=0.128127
						72:leaf=0.0797107
				24:[f487<175.28] yes=43,no=44,missing=43
					43:[f474<2.785] yes=73,no=74,missing=73
						73:leaf=0.0690239
						74:leaf=0.00797322
					44:[f684<2032] yes=75,no=76,missing=75
						75:leaf=0.0321865
						76:leaf=0.078725
			12:[f341<-0.335] yes=25,no=26,missing=25
				25:[f580<841.5] yes=45,no=46,missing=45
					45:[f223<0.1155] yes=77,no=78,missing=77
						77:leaf=0.103512
						78:leaf=0.0173658
					46:leaf=0.0219151
				26:[f389<1265.07] yes=47,no=48,missing=47
					47:[f314<-0.084] yes=79,no=80,missing=79
						79:leaf=0.0275464
						80:leaf=0.121196
					48:[f513<1378.1] yes=81,no=82,missing=81
						81:leaf=0.117654
						82:leaf=0.0437894
		6:[f691<-679276] yes=13,no=14,missing=13
			13:leaf=0.0249885
			14:[f606<378594] yes=27,no=28,missing=27
				27:[f689<-3.5] yes=49,no=50,missing=49
					49:[f215<0.0115] yes=83,no=84,missing=83
						83:leaf=-0.0124703
						84:leaf=0.0278729
					50:[f707<-2.5] yes=85,no=86,missing=85
						85:leaf=-0.00443452
						86:leaf=-0.0191605
				28:leaf=0.0125501
booster[11]:
0:[f613<-1.5] yes=1,no=2,missing=1
	1:[f378<620.6] yes=3,no=4,missing=3
		3:[f56<-0.1565] yes=7,no=8,missing=7
			7:[f462<829.635] yes=15,no=16,missing=15
				15:[f197<0.1115] yes=29,no=30,missing=29
					29:[f562<-657496] yes=53,no=54,missing=53
						53:leaf=0.0068092
						54:leaf=-0.0142095
					30:[f228<0.0005] yes=55,no=56,missing=55
						55:leaf=-0.0123986
						56:leaf=0.0292138
				16:[f691<-2] yes=31,no=32,missing=31
					31:[f118<0.0465] yes=57,no=58,missing=57
						57:leaf=-0.00770315
						58:leaf=0.0213346
					32:[f571<-1.5] yes=59,no=60,missing=59
						59:leaf=-0.0115156
						60:leaf=0.0935686
			8:[f15<0.2605] yes=17,no=18,missing=17
				17:[f312<0.2675] yes=33,no=34,missing=33
					33:[f78<0.3165] yes=61,no=62,missing=61
						61:leaf=-0.0158479
						62:leaf=0.0199099
					34:[f612<3689] yes=63,no=64,missing=63
						63:leaf=-0.0129217
						64:leaf=0.0340658
				18:leaf=0.0163974
		4:[f394<629.93] yes=9,no=10,missing=9
			9:[f364<16] yes=19,no=20,missing=19
				19:[f613<-3334.5] yes=35,no=36,missing=35
					35:leaf=-0.0106956
					36:leaf=-8.33236e-05
				20:[f364<23.5] yes=37,no=38,missing=37
					37:[f650<1131] yes=65,no=66,missing=65
						65:leaf=0.0145554
						66:leaf=0.130739
					38:leaf=-0.00126306
			10:[f685<-7645] yes=21,no=22,missing=21
				21:[f92<-0.0345] yes=39,no=40,missing=39
					39:[f650<55687] yes=67,no=68,missing=67
						67:leaf=-0.0185218
						68:leaf=0.00189682
					40:[f634<37519] yes=69,no=70,missing=69
						69:leaf=0.0299057
						70:leaf=-0.0107146
				22:[f577<-66091] yes=41,no=42,missing=41
					41:leaf=0.0493329
					42:[f107<0.035] yes=71,no=72,missing=71
						71:leaf=-0.0149115
						72:leaf=0.0195622
	2:[f613<365.5] yes=5,no=6,missing=5
		5:[f378<60.355] yes=11,no=12,missing=11
			11:[f153<0.0585] yes=23,no=24,missing=23
				23:[f615<-1.5] yes=43,no=44,missing=43
					43:[f684<363] yes=73,no=74,missing=73
						73:leaf=0.0448563
						74:leaf=0.0960644
					44:[f394<174.285] yes=75,no=76,missing=75
						75:leaf=0.00814116
						76:leaf=0.0575836
				24:[f121<0.076] yes=45,no=46,missing=45
					45:[f214<-0.0145] yes=77,no=78,missing=77
						77:leaf=0.0448591
						78:leaf=0.0227789
					46:[f81<0.0915] yes=79,no=80,missing=79
						79:leaf=-0.0156683
						80:leaf=0.0293495
			12:[f364<28.5] yes=25,no=26,missing=25
				25:[f342<-500000] yes=47,no=48,missing=47
					47:[f97<0.0155] yes=81,no=82,missing=81
						81:leaf=0.0924438
						82:leaf=0.0200689
					48:leaf=0.000447757
				26:leaf=-0.00108835
		6:[f567<-188652] yes=13,no=14,missing=13
			13:leaf=0.0238914
			14:[f266<0.1955] yes=27,no=28,missing=27
				27:[f158<0.0915] yes=49,no=50,missing=49
					49:[f341<-0.246] yes=83,no=84,missing=83
						83:leaf=0.00962764
						84:leaf=-0.0191829
					50:leaf=0.0186221
				28:[f394<969.04] yes=51,no=52,missing=51
					51:[f83<-0.0095] yes=85,no=86,missing=85
						85:leaf=-0.0114882
						86:leaf=0.0519776
					52:leaf=-0.0158048
booster[12]:
0:[f639<-81.5] yes=1,no=2,missing=1
	1:[f396<620.6] yes=3,no=4,missing=3
		3:[f56<-0.133] yes=7,no=8,missing=7
			7:[f569<782542] yes=15,no=16,missing=15
				15:[f228<0.0005] yes=29,no=30,missing=29
					29:[f634<-723921] yes=55,no=56,missing=55
						55:leaf=0.00811595
						56:leaf=-0.0137601
					30:[f141<0.2905] yes=57,no=58,missing=57
						57:leaf=-0.00859385
						58:leaf=0.0242487
				16:[f468<839.115] yes=31,no=32,missing=31
					31:leaf=-0.0140824
					32:leaf=0.0593355
			8:[f447<1609.22] yes=17,no=18,missing=17
				17:[f369<1599.74] yes=33,no=34,missing=33
					33:[f468<1043.03] yes=59,no=60,missing=59
						59:leaf=-0.0143598
						60:leaf=-0.017259
					34:[f555<-83047] yes=61,no=62,missing=61
						61:leaf=0.0369821
						62:leaf=-0.0106545
				18:[f120<0.0105] yes=35,no=36,missing=35
					35:leaf=0.0407737
					36:leaf=-0.0133026
		4:[f341<-0.23] yes=9,no=10,missing=9
			9:[f364<16.5] yes=19,no=20,missing=19
				19:[f255<0.0105] yes=37,no=38,missing=37
					37:leaf=-0.0137841
					38:leaf=0.0197248
				20:[f696<1556.5] yes=39,no=40,missing=39
					39:leaf=-0.00521848
					40:[f576<84822.5] yes=63,no=64,missing=63
						63:leaf=0.114768
						64:leaf=0.00168788
			10:[f685<-15948] yes=21,no=22,missing=21
				21:[f573<-6571] yes=41,no=42,missing=41
					41:leaf=-5.22687e-05
					42:leaf=-0.0183386
				22:[f104<0.033] yes=43,no=44,missing=43
					43:[f684<3878] yes=65,no=66,missing=65
						65:leaf=0.00994266
						66:leaf=-0.0159312
					44:leaf=0.0367579
	2:[f639<164] yes=5,no=6,missing=5
		5:[f417<20.86] yes=11,no=12,missing=11
			11:[f194<-0.0175] yes=23,no=24,missing=23
				23:[f277<-0.0275] yes=45,no=46,missing=45
					45:[f387<1521.68] yes=67,no=68,missing=67
						67:leaf=0.08976
						68:leaf=-0.00203165
					46:[f614<82665.5] yes=69,no=70,missing=69
						69:leaf=-0.0127303
						70:leaf=0.0190654
				24:[f559<-1553.5] yes=47,no=48,missing=47
					47:[f623<-7184] yes=71,no=72,missing=71
						71:leaf=-0.0140383
						72:leaf=0.101886
					48:[f522<1.49] yes=73,no=74,missing=73
						73:leaf=0.0190577
						74:leaf=-0.0160791
			12:[f157<0.0015] yes=25,no=26,missing=25
				25:[f590<68] yes=49,no=50,missing=49
					49:[f328<0.0355] yes=75,no=76,missing=75
						75:leaf=0.0180568
						76:leaf=0.0927207
					50:[f64<0.0125] yes=77,no=78,missing=77
						77:leaf=0.0399849
						78:leaf=0.0588784
				26:[f166<-0.1885] yes=51,no=52,missing=51
					51:leaf=0.152159
					52:[f70<-0.085] yes=79,no=80,missing=79
						79:leaf=0.0335483
						80:leaf=0.100987
		6:[f709<2.29133e+06] yes=13,no=14,missing=13
			13:[f685<-161267] yes=27,no=28,missing=27
				27:leaf=0.00761055
				28:[f369<1261.85] yes=53,no=54,missing=53
					53:[f56<-0.3095] yes=81,no=82,missing=81
						81:leaf=-0.0013831
						82:leaf=-0.0178656
					54:leaf=0.00990029
			14:leaf=0.0198522
booster[13]:
0:[f639<-81.5] yes=1,no=2,missing=1
	1:[f378<557.1] yes=3,no=4,missing=3
		3:[f56<-0.133] yes=7,no=8,missing=7
			7:[f442<826.405] yes=15,no=16,missing=15
				15:[f192<0.0275] yes=31,no=32,missing=31
					31:[f265<-0.0045] yes=57,no=58,missing=57
						57:leaf=-0.0143426
						58:leaf=0.0107021
					32:[f180<0.0305] yes=59,no=60,missing=59
						59:leaf=-0.0170231
						60:leaf=0.0225977
				16:[f677<782214] yes=33,no=34,missing=33
					33:[f141<0.1205] yes=61,no=62,missing=61
						61:leaf=-0.00845263
						62:leaf=0.00782749
					34:leaf=0.044248
			8:[f449<1609.22] yes=17,no=18,missing=17
				17:[f383<1599.7] yes=35,no=36,missing=35
					35:[f16<0.0435] yes=63,no=64,missing=63
						63:leaf=-0.0161659
						64:leaf=0.00613863
					36:[f60<0.0615] yes=65,no=66,missing=65
						65:leaf=-0.0106264
						66:leaf=0.030528
				18:[f7<-0.0005] yes=37,no=38,missing=37
					37:leaf=0.0259658
					38:leaf=-0.0121937
		4:[f80<-0.218] yes=9,no=10,missing=9
			9:[f34<776] yes=19,no=20,missing=19
				19:[f52<0.0415] yes=39,no=40,missing=39
					39:[f141<-0.0215] yes=67,no=68,missing=67
						67:leaf=0.00779231
						68:leaf=0.110726
					40:leaf=-0.0010337
				20:[f250<0.0635] yes=41,no=42,missing=41
					41:[f715<-8771.5] yes=69,no=70,missing=69
						69:leaf=0.0157175
						70:leaf=-0.0158328
					42:leaf=0.0395663
			10:[f133<0.0275] yes=21,no=22,missing=21
				21:[f60<-0.102] yes=43,no=44,missing=43
					43:leaf=0.0132658
					44:[f324<0.2085] yes=71,no=72,missing=71
						71:leaf=-0.0187801
						72:leaf=0.00988371
				22:leaf=0.0296663
	2:[f639<164] yes=5,no=6,missing=5
		5:[f341<-0.108] yes=11,no=12,missing=11
			11:[f379<1431.46] yes=23,no=24,missing=23
				23:[f30<0.077] yes=45,no=46,missing=45
					45:[f0<0.0585] yes=73,no=74,missing=73
						73:leaf=0.0743624
						74:leaf=-0.00637953
					46:[f378<207.655] yes=75,no=76,missing=75
						75:leaf=-0.00112844
						76:leaf=0.0464226
				24:[f225<-0.17] yes=47,no=48,missing=47
					47:[f269<-0.0645] yes=77,no=78,missing=77
						77:leaf=-0.0111034
						78:leaf=0.0527746
					48:[f216<0.0765] yes=79,no=80,missing=79
						79:leaf=-0.016506
						80:leaf=0.0141687
			12:[f225<-0.152] yes=25,no=26,missing=25
				25:[f615<-1.5] yes=49,no=50,missing=49
					49:[f526<379.26] yes=81,no=82,missing=81
						81:leaf=0.0706646
						82:leaf=0.00270232
					50:[f268<-0.1035] yes=83,no=84,missing=83
						83:leaf=0.0141358
						84:leaf=0.0492153
				26:[f582<9373] yes=51,no=52,missing=51
					51:[f446<3.755] yes=85,no=86,missing=85
						85:leaf=0.0124704
						86:leaf=0.0347062
					52:[f269<0.1145] yes=87,no=88,missing=87
						87:leaf=0.0575649
						88:leaf=0.0103868
		6:[f87<0.0235] yes=13,no=14,missing=13
			13:[f384<1374.6] yes=27,no=28,missing=27
				27:[f293<0.0855] yes=53,no=54,missing=53
					53:[f583<-58056.5] yes=89,no=90,missing=89
						89:leaf=-0.00376874
						90:leaf=-0.0186396
					54:leaf=0.00678611
				28:[f105<-0.069] yes=55,no=56,missing=55
					55:leaf=-0.0136806
					56:leaf=0.0161959
			14:[f633<1.3032e+06] yes=29,no=30,missing=29
				29:leaf=-0.011629
				30:leaf=0.0383949
booster[14]:
0:[f651<-1.5] yes=1,no=2,missing=1
	1:[f378<620.6] yes=3,no=4,missing=3
		3:[f513<989.565] yes=7,no=8,missing=7
			7:[f513<879.605] yes=15,no=16,missing=15
				15:[f141<0.231] yes=31,no=32,missing=31
					31:[f254<0.1805] yes=57,no=58,missing=57
						57:leaf=-0.0138311
						58:leaf=0.0157635
					32:[f167<-0.1385] yes=59,no=60,missing=59
						59:leaf=0.0393403
						60:leaf=-0.00686062
				16:[f691<-1.5] yes=33,no=34,missing=33
					33:[f467<921.415] yes=61,no=62,missing=61
						61:leaf=-0.000590075
						62:leaf=-0.0121422
					34:[f691<3869.5] yes=63,no=64,missing=63
						63:leaf=0.0835534
						64:leaf=0.00700856
			8:[f403<1615.26] yes=17,no=18,missing=17
				17:[f198<0.261] yes=35,no=36,missing=35
					35:[f631<-1.5464e+06] yes=65,no=66,missing=65
						65:leaf=0.0085067
						66:leaf=-0.0169478
					36:leaf=0.0100868
				18:[f446<1.845] yes=37,no=38,missing=37
					37:leaf=0.0313341
					38:leaf=-0.0131216
		4:[f341<-0.23] yes=9,no=10,missing=9
			9:[f364<16.5] yes=19,no=20,missing=19
				19:[f583<-72017] yes=39,no=40,missing=39
					39:leaf=0.0198574
					40:leaf=-0.0140528
				20:[f696<1131] yes=41,no=42,missing=41
					41:leaf=-0.0124274
					42:[f364<25] yes=67,no=68,missing=67
						67:leaf=0.0731895
						68:leaf=-0.010759
			10:[f187<-0.0005] yes=21,no=22,missing=21
				21:[f345<0.204] yes=43,no=44,missing=43
					43:[f167<-0.1455] yes=69,no=70,missing=69
						69:leaf=0.00134248
						70:leaf=-0.0186453
					44:leaf=0.00855678
				22:leaf=0.0273589
	2:[f651<730.5] yes=5,no=6,missing=5
		5:[f467<539.36] yes=11,no=12,missing=11
			11:[f671<-1.5] yes=23,no=24,missing=23
				23:[f121<0.0545] yes=45,no=46,missing=45
					45:[f337<0.0245] yes=71,no=72,missing=71
						71:leaf=0.0611762
						72:leaf=0.0936444
					46:[f243<0.102] yes=73,no=74,missing=73
						73:leaf=0.0121414
						74:leaf=0.0999904
				24:[f696<1425.5] yes=47,no=48,missing=47
					47:[f462<223.525] yes=75,no=76,missing=75
						75:leaf=-0.0107155
						76:leaf=0.0273025
					48:[f714<5.5] yes=77,no=78,missing=77
						77:leaf=0.0589376
						78:leaf=0.0297483
			12:[f90<0.1355] yes=25,no=26,missing=25
				25:[f364<16] yes=49,no=50,missing=49
					49:[f297<0.0105] yes=79,no=80,missing=79
						79:leaf=0.0337468
						80:leaf=-0.00379397
					50:[f267<0.117] yes=81,no=82,missing=81
						81:leaf=0.0733209
						82:leaf=0.00734102
				26:[f224<0.0395] yes=51,no=52,missing=51
					51:[f74<-500000] yes=83,no=84,missing=83
						83:leaf=0.186575
						84:leaf=0.0436453
					52:leaf=-0.0107867
		6:[f35<0.0035] yes=13,no=14,missing=13
			13:[f348<0.0055] yes=27,no=28,missing=27
				27:[f118<0.0495] yes=53,no=54,missing=53
					53:[f255<0.1605] yes=85,no=86,missing=85
						85:leaf=-0.0194823
						86:leaf=0.00462954
					54:leaf=0.00468672
				28:leaf=0.0194692
			14:[f554<1.5] yes=29,no=30,missing=29
				29:[f56<-0.174] yes=55,no=56,missing=55
					55:[f379<641.41] yes=87,no=88,missing=87
						87:leaf=0.0398879
						88:leaf=-0.0102498
					56:[f275<0.0085] yes=89,no=90,missing=89
						89:leaf=-0.0162172
						90:leaf=0.00994139
				30:leaf=0.0287119
booster[15]:
0:[f639<-53.5] yes=1,no=2,missing=1
	1:[f378<557.1] yes=3,no=4,missing=3
		3:[f474<961.295] yes=7,no=8,missing=7
			7:[f393<829.415] yes=15,no=16,missing=15
				15:[f164<0.1925] yes=31,no=32,missing=31
					31:[f574<-2.16507e+06] yes=55,no=56,missing=55
						55:leaf=0.0177089
						56:leaf=-0.0139528
					32:[f256<0.1835] yes=57,no=58,missing=57
						57:leaf=-0.00873303
						58:leaf=0.0342864
				16:[f365<960.705] yes=33,no=34,missing=33
					33:[f462<904.145] yes=59,no=60,missing=59
						59:leaf=0.00282271
						60:leaf=-0.0101061
					34:leaf=0.0494862
			8:[f561<-181149] yes=17,no=18,missing=17
				17:[f697<-54568] yes=35,no=36,missing=35
					35:leaf=0.0199522
					36:leaf=-0.0115355
				18:[f295<0.318] yes=37,no=38,missing=37
					37:[f380<1415.55] yes=61,no=62,missing=61
						61:leaf=-0.0171145
						62:leaf=-0.00341147
					38:leaf=0.00928967
		4:[f399<557.98] yes=9,no=10,missing=9
			9:[f19<-0.0405] yes=19,no=20,missing=19
				19:[f633<-793] yes=39,no=40,missing=39
					39:[f681<-11417] yes=63,no=64,missing=63
						63:leaf=0.00989684
						64:leaf=-0.0158413
					40:leaf=0.0243442
				20:[f93<0.0195] yes=41,no=42,missing=41
					41:[f577<-66627] yes=65,no=66,missing=65
						65:leaf=0.0283549
						66:leaf=0.113124
					42:leaf=-0.00240897
			10:[f233<0.0195] yes=21,no=22,missing=21
				21:[f685<-7648] yes=43,no=44,missing=43
					43:[f564<6168] yes=67,no=68,missing=67
						67:leaf=-0.0185479
						68:leaf=-5.15046e-05
					44:[f582<3825.5] yes=69,no=70,missing=69
						69:leaf=0.0299282
						70:leaf=-0.0103937
				22:leaf=0.0285635
	2:[f639<164] yes=5,no=6,missing=5
		5:[f399<5.25] yes=11,no=12,missing=11
			11:[f3<0.0355] yes=23,no=24,missing=23
				23:[f379<1431.46] yes=45,no=46,missing=45
					45:[f277<-0.027] yes=71,no=72,missing=71
						71:leaf=0.0740636
						72:leaf=0.00867348
					46:[f222<0.018] yes=73,no=74,missing=73
						73:leaf=-0.0144417
						74:leaf=0.0378311
				24:[f559<-1403] yes=47,no=48,missing=47
					47:[f711<-7296] yes=75,no=76,missing=75
						75:leaf=-0.00421599
						76:leaf=0.0722989
					48:[f582<7.5] yes=77,no=78,missing=77
						77:leaf=0.00505096
						78:leaf=-0.0161427
			12:[f70<0.1265] yes=25,no=26,missing=25
				25:[f109<0.0885] yes=49,no=50,missing=49
					49:[f567<-3334.5] yes=79,no=80,missing=79
						79:leaf=0.149225
						80:leaf=0.0364365
					50:[f164<0.2285] yes=81,no=82,missing=81
						81:leaf=0.107265
						82:leaf=0.00745953
				26:[f166<0.0505] yes=51,no=52,missing=51
					51:leaf=0.112072
					52:[f51<0.0095] yes=83,no=84,missing=83
						83:leaf=0.0463559
						84:leaf=-0.0113012
		6:[f87<0.0235] yes=13,no=14,missing=13
			13:[f685<-378776] yes=27,no=28,missing=27
				27:leaf=0.00991643
				28:[f129<0.1335] yes=53,no=54,missing=53
					53:[f345<0.204] yes=85,no=86,missing=85
						85:leaf=-0.01908
						86:leaf=0.00166256
					54:[f43<0.041] yes=87,no=88,missing=87
						87:leaf=-0.016376
						88:leaf=0.0231716
			14:[f612<3359.5] yes=29,no=30,missing=29
				29:leaf=-0.0113564
				30:leaf=0.0364075
booster[16]:
0:[f613<-1.5] yes=1,no=2,missing=1
	1:[f378<620.6] yes=3,no=4,missing=3
		3:[f513<989.565] yes=7,no=8,missing=7
			7:[f513<879.595] yes=15,no=16,missing=15
				15:[f562<-657720] yes=29,no=30,missing=29
					29:[f16<-0.0025] yes=53,no=54,missing=53
						53:leaf=0.0304569
						54:leaf=-0.00917206
					30:[f87<0.0335] yes=55,no=56,missing=55
						55:leaf=-0.0141852
						56:leaf=-0.00673485
				16:[f691<-1.5] yes=31,no=32,missing=31
					31:[f118<0.0465] yes=57,no=58,missing=57
						57:leaf=-0.00828064
						58:leaf=0.0281476
					32:[f691<35923] yes=59,no=60,missing=59
						59:leaf=0.113955
						60:leaf=0.00293594
			8:[f447<1609.22] yes=17,no=18,missing=17
				17:[f709<2.23008e+06] yes=33,no=34,missing=33
					33:[f190<-0.0005] yes=61,no=62,missing=61
						61:leaf=-0.0168905
						62:leaf=-0.00247555
					34:leaf=0.0199059
				18:[f170<0.0325] yes=35,no=36,missing=35
					35:leaf=-0.013343
					36:leaf=0.0471714
		4:[f393<638.995] yes=9,no=10,missing=9
			9:[f152<-0.2425] yes=19,no=20,missing=19
				19:[f571<-4741.5] yes=37,no=38,missing=37
					37:leaf=-0.0101786
					38:[f590<2.5] yes=63,no=64,missing=63
						63:leaf=0.00558618
						64:leaf=0.0918651
				20:[f571<-9150] yes=39,no=40,missing=39
					39:leaf=0.0287101
					40:leaf=-0.0144135
			10:[f293<0.0735] yes=21,no=22,missing=21
				21:[f10<0.169] yes=41,no=42,missing=41
					41:[f321<0.0235] yes=65,no=66,missing=65
						65:leaf=-0.016392
						66:leaf=0.00708473
					42:leaf=0.0191459
				22:leaf=0.0293488
	2:[f613<365.5] yes=5,no=6,missing=5
		5:[f153<0.0615] yes=11,no=12,missing=11
			11:[f582<2484.5] yes=23,no=24,missing=23
				23:[f671<-1.5] yes=43,no=44,missing=43
					43:[f474<336.755] yes=67,no=68,missing=67
						67:leaf=0.0220752
						68:leaf=0.0655318
					44:[f266<-0.1385] yes=69,no=70,missing=69
						69:leaf=0.00725576
						70:leaf=0.0436961
				24:[f285<0.1355] yes=45,no=46,missing=45
					45:[f262<0.034] yes=71,no=72,missing=71
						71:leaf=0.0627981
						72:leaf=0.0151479
					46:[f251<-0.012] yes=73,no=74,missing=73
						73:leaf=-0.0136223
						74:leaf=0.0173803
			12:[f82<-0.2785] yes=25,no=26,missing=25
				25:[f423<1366.18] yes=47,no=48,missing=47
					47:[f285<-0.107] yes=75,no=76,missing=75
						75:leaf=0.0703258
						76:leaf=0.0185088
					48:leaf=0.00516851
				26:[f90<0.0845] yes=49,no=50,missing=49
					49:[f566<-218560] yes=77,no=78,missing=77
						77:leaf=0.0842883
						78:leaf=0.0219674
					50:[f153<0.0805] yes=79,no=80,missing=79
						79:leaf=0.0200887
						80:leaf=0.0840453
		6:[f691<-682061] yes=13,no=14,missing=13
			13:leaf=0.0442391
			14:[f248<0.0095] yes=27,no=28,missing=27
				27:[f309<-0.0005] yes=51,no=52,missing=51
					51:[f26<0.0655] yes=81,no=82,missing=81
						81:leaf=-0.0187234
						82:leaf=0.00167044
					52:leaf=0.00925113
				28:leaf=0.0172382
booster[17]:
0:[f639<-53.5] yes=1,no=2,missing=1
	1:[f378<673.335] yes=3,no=4,missing=3
		3:[f513<989.44] yes=7,no=8,missing=7
			7:[f393<773.695] yes=15,no=16,missing=15
				15:[f513<1.255] yes=29,no=30,missing=29
					29:[f638<2218.5] yes=55,no=56,missing=55
						55:leaf=-0.010998
						56:leaf=0.0343229
					30:[f319<0.0335] yes=57,no=58,missing=57
						57:leaf=-0.0144409
						58:leaf=0.0021591
				16:[f293<0.1195] yes=31,no=32,missing=31
					31:[f569<782043] yes=59,no=60,missing=59
						59:leaf=-0.00815254
						60:leaf=0.0288825
					32:leaf=0.0389319
			8:[f447<1609.22] yes=17,no=18,missing=17
				17:[f427<1615.26] yes=33,no=34,missing=33
					33:[f471<1189.19] yes=61,no=62,missing=61
						61:leaf=-0.0172294
						62:leaf=-0.00179828
					34:[f389<1628.91] yes=63,no=64,missing=63
						63:leaf=0.0396704
						64:leaf=-0.0106575
				18:[f7<-0.0005] yes=35,no=36,missing=35
					35:leaf=0.0321139
					36:leaf=-0.0119775
		4:[f80<-0.218] yes=9,no=10,missing=9
			9:[f610<2821.5] yes=19,no=20,missing=19
				19:[f113<0.276] yes=37,no=38,missing=37
					37:[f652<2550] yes=65,no=66,missing=65
						65:leaf=0.0873722
						66:leaf=-0.0023565
					38:leaf=-0.0116733
				20:[f665<-2264] yes=39,no=40,missing=39
					39:leaf=0.00989287
					40:leaf=-0.0142519
			10:[f612<53573.5] yes=21,no=22,missing=21
				21:[f275<0.164] yes=41,no=42,missing=41
					41:leaf=-0.0185642
					42:leaf=-5.46911e-05
				22:[f379<906.605] yes=43,no=44,missing=43
					43:leaf=0.0359806
					44:leaf=-0.0115217
	2:[f639<164] yes=5,no=6,missing=5
		5:[f378<60.355] yes=11,no=12,missing=11
			11:[f70<0.0855] yes=23,no=24,missing=23
				23:[f272<0.0275] yes=45,no=46,missing=45
					45:[f684<93.5] yes=67,no=68,missing=67
						67:leaf=0.0220667
						68:leaf=0.0403768
					46:[f79<0.2745] yes=69,no=70,missing=69
						69:leaf=-0.00090581
						70:leaf=0.0360108
				24:[f291<0.0385] yes=47,no=48,missing=47
					47:[f337<0.0665] yes=71,no=72,missing=71
						71:leaf=0.100857
						72:leaf=0.0264166
					48:leaf=0.017623
			12:[f364<28.5] yes=25,no=26,missing=25
				25:[f277<-500000] yes=49,no=50,missing=49
					49:[f295<0.046] yes=73,no=74,missing=73
						73:leaf=0.0667707
						74:leaf=0.0262699
					50:leaf=0.00251275
				26:[f230<-0.1065] yes=51,no=52,missing=51
					51:leaf=0.00882911
					52:leaf=-0.0126903
		6:[f173<0.2625] yes=13,no=14,missing=13
			13:[f435<1642.39] yes=27,no=28,missing=27
				27:[f691<-561504] yes=53,no=54,missing=53
					53:leaf=0.00992358
					54:[f293<0.0855] yes=75,no=76,missing=75
						75:leaf=-0.0178299
						76:leaf=0.00514447
				28:leaf=0.0173093
			14:leaf=0.0187468
booster[18]:
0:[f639<-81.5] yes=1,no=2,missing=1
	1:[f378<557.01] yes=3,no=4,missing=3
		3:[f513<989.44] yes=7,no=8,missing=7
			7:[f487<776.325] yes=15,no=16,missing=15
				15:[f190<0.0935] yes=29,no=30,missing=29
					29:[f146<4.5] yes=55,no=56,missing=55
						55:leaf=0.0196543
						56:leaf=-0.0143336
					30:[f212<-0.0345] yes=57,no=58,missing=57
						57:leaf=0.0458298
						58:leaf=-0.00903692
				16:[f691<1.03649e+06] yes=31,no=32,missing=31
					31:[f133<0.1175] yes=59,no=60,missing=59
						59:leaf=-0.00802193
						60:leaf=0.0310921
					32:[f437<822.085] yes=61,no=62,missing=61
						61:leaf=0.0499362
						62:leaf=-0.000540411
			8:[f97<0.0305] yes=17,no=18,missing=17
				17:[f631<-1.54759e+06] yes=33,no=34,missing=33
					33:leaf=0.00750894
					34:[f60<0.35] yes=63,no=64,missing=63
						63:leaf=-0.0167279
						64:leaf=0.00468584
				18:[f332<0.0995] yes=35,no=36,missing=35
					35:[f633<-62243] yes=65,no=66,missing=65
						65:leaf=-4.70158e-05
						66:leaf=-0.0172036
					36:[f65<0.0005] yes=67,no=68,missing=67
						67:leaf=-0.00688617
						68:leaf=0.0475881
		4:[f393<557.98] yes=9,no=10,missing=9
			9:[f105<-0.018] yes=19,no=20,missing=19
				19:[f67<-0.0015] yes=37,no=38,missing=37
					37:leaf=0.0407029
					38:[f603<-4173] yes=69,no=70,missing=69
						69:leaf=-0.000134584
						70:leaf=-0.0145463
				20:[f651<-3359.5] yes=39,no=40,missing=39
					39:leaf=0.0123406
					40:leaf=0.103383
			10:[f230<0.1915] yes=21,no=22,missing=21
				21:[f696<9318.5] yes=41,no=42,missing=41
					41:[f687<-69090.5] yes=71,no=72,missing=71
						71:leaf=-5.65541e-05
						72:leaf=-0.0187405
					42:[f274<0.095] yes=73,no=74,missing=73
						73:leaf=0.0362838
						74:leaf=-0.0149746
				22:leaf=0.0291116
	2:[f639<164] yes=5,no=6,missing=5
		5:[f341<-0.0345] yes=11,no=12,missing=11
			11:[f513<1432.62] yes=23,no=24,missing=23
				23:[f566<12100] yes=43,no=44,missing=43
					43:[f513<677.585] yes=75,no=76,missing=75
						75:leaf=0.0337931
						76:leaf=0.0545463
					44:[f347<0.0125] yes=77,no=78,missing=77
						77:leaf=0.0756367
						78:leaf=0.0169805
				24:[f104<0.0265] yes=45,no=46,missing=45
					45:[f211<0.3955] yes=79,no=80,missing=79
						79:leaf=-0.00229248
						80:leaf=0.0361115
					46:[f80<-0.187] yes=81,no=82,missing=81
						81:leaf=-0.0119444
						82:leaf=0.0603672
			12:[f225<-0.043] yes=25,no=26,missing=25
				25:[f352<0.0125] yes=47,no=48,missing=47
					47:[f268<-0.3415] yes=83,no=84,missing=83
						83:leaf=-0.00941321
						84:leaf=0.0382843
					48:[f80<0.1515] yes=85,no=86,missing=85
						85:leaf=-0.015437
						86:leaf=0.0245749
				26:[f446<3.075] yes=49,no=50,missing=49
					49:[f206<0.2035] yes=87,no=88,missing=87
						87:leaf=0.00143167
						88:leaf=0.0336283
					50:[f343<-0.0155] yes=89,no=90,missing=89
						89:leaf=0.0507196
						90:leaf=0.0147827
		6:[f413<1599.67] yes=13,no=14,missing=13
			13:[f36<-0.0205] yes=27,no=28,missing=27
				27:[f358<-0.0535] yes=51,no=52,missing=51
					51:leaf=0.0199445
					52:leaf=-0.0121465
				28:[f588<83662.5] yes=53,no=54,missing=53
					53:[f151<0.3335] yes=91,no=92,missing=91
						91:leaf=-0.019628
						92:leaf=-0.000371671
					54:leaf=-5.19669e-05
			14:leaf=0.00994282
booster[19]:
0:[f639<-81.5] yes=1,no=2,missing=1
	1:[f396<557.1] yes=3,no=4,missing=3
		3:[f274<-0.1385] yes=7,no=8,missing=7
			7:[f519<773.685] yes=15,no=16,missing=15
				15:[f192<0.0335] yes=31,no=32,missing=31
					31:[f395<1414.18] yes=55,no=56,missing=55
						55:leaf=-0.0139886
						56:leaf=0.0234356
					32:[f612<9550.5] yes=57,no=58,missing=57
						57:leaf=-0.00646347
						58:leaf=0.0419154
				16:[f594<-653666] yes=33,no=34,missing=33
					33:[f341<-0.01] yes=59,no=60,missing=59
						59:leaf=-0.0017328
						60:leaf=0.0595062
					34:[f566<58279.5] yes=61,no=62,missing=61
						61:leaf=-0.00871652
						62:leaf=0.00776834
			8:[f447<1609.22] yes=17,no=18,missing=17
				17:[f312<0.2825] yes=35,no=36,missing=35
					35:[f442<1.225] yes=63,no=64,missing=63
						63:leaf=0.0142284
						64:leaf=-0.0154368
					36:leaf=0.0199764
				18:[f215<-0.021] yes=37,no=38,missing=37
					37:leaf=0.0383891
					38:[f167<-0.033] yes=65,no=66,missing=65
						65:leaf=-5.55899e-05
						66:leaf=-0.0107501
		4:[f399<557.98] yes=9,no=10,missing=9
			9:[f129<0.0625] yes=19,no=20,missing=19
				19:[f170<0.0365] yes=39,no=40,missing=39
					39:[f590<24.5] yes=67,no=68,missing=67
						67:leaf=-0.016124
						68:leaf=0.0167422
					40:[f147<-0.0015] yes=69,no=70,missing=69
						69:leaf=-0.0102213
						70:leaf=0.0632208
				20:[f19<-0.0795] yes=41,no=42,missing=41
					41:leaf=0.0078816
					42:leaf=0.0975583
			10:[f181<0.0115] yes=21,no=22,missing=21
				21:[f684<1346.5] yes=43,no=44,missing=43
					43:[f582<-448995] yes=71,no=72,missing=71
						71:leaf=-0.010562
						72:leaf=0.0199341
					44:leaf=-0.0187098
				22:leaf=0.0284444
	2:[f639<700] yes=5,no=6,missing=5
		5:[f399<6.72] yes=11,no=12,missing=11
			11:[f132<-0.133] yes=23,no=24,missing=23
				23:[f277<-0.0275] yes=45,no=46,missing=45
					45:[f388<1130.53] yes=73,no=74,missing=73
						73:leaf=0.0644262
						74:leaf=0.0189507
					46:[f36<-0.0195] yes=75,no=76,missing=75
						75:leaf=0.0188178
						76:leaf=-0.0138806
				24:[f559<-1234] yes=47,no=48,missing=47
					47:[f711<-7104.5] yes=77,no=78,missing=77
						77:leaf=0.00917312
						78:leaf=0.0736108
					48:[f194<0.2355] yes=79,no=80,missing=79
						79:leaf=-0.000758242
						80:leaf=0.0534642
			12:[f225<-0.152] yes=25,no=26,missing=25
				25:[f149<0.108] yes=49,no=50,missing=49
					49:[f240<0.065] yes=81,no=82,missing=81
						81:leaf=0.0270233
						82:leaf=0.0442773
					50:[f81<0.0545] yes=83,no=84,missing=83
						83:leaf=0.0770629
						84:leaf=0.0153891
				26:[f446<3.755] yes=51,no=52,missing=51
					51:[f668<-627124] yes=85,no=86,missing=85
						85:leaf=0.0773658
						86:leaf=0.0110134
					52:[f202<0.0655] yes=87,no=88,missing=87
						87:leaf=0.0435434
						88:leaf=0.0122979
		6:[f87<0.0235] yes=13,no=14,missing=13
			13:[f369<1260.61] yes=27,no=28,missing=27
				27:[f129<0.1335] yes=53,no=54,missing=53
					53:[f182<0.1105] yes=89,no=90,missing=89
						89:leaf=-0.0184955
						90:leaf=0.00973024
					54:[f613<-4359.5] yes=91,no=92,missing=91
						91:leaf=0.0298673
						92:leaf=-0.0128327
				28:leaf=0.00986673
			14:[f633<1.29937e+06] yes=29,no=30,missing=29
				29:leaf=-0.0113802
				30:leaf=0.0340408
booster[20]:
0:[f639<-81.5] yes=1,no=2,missing=1
	1:[f378<627.085] yes=3,no=4,missing=3
		3:[f56<-0.133] yes=7,no=8,missing=7
			7:[f442<829.395] yes=15,no=16,missing=15
				15:[f634<1.5] yes=31,no=32,missing=31
					31:[f241<0.0185] yes=53,no=54,missing=53
						53:leaf=-0.00999855
						54:leaf=0.0122017
					32:[f36<0.03] yes=55,no=56,missing=55
						55:leaf=-0.0141347
						56:leaf=0.00311344
				16:[f347<-0.1235] yes=33,no=34,missing=33
					33:[f672<54696.5] yes=57,no=58,missing=57
						57:leaf=-0.0020002
						58:leaf=0.0322801
					34:[f325<0.0505] yes=59,no=60,missing=59
						59:leaf=-0.017196
						60:leaf=0.00250525
			8:[f513<1.255] yes=17,no=18,missing=17
				17:leaf=0.0144772
				18:[f447<1609.22] yes=35,no=36,missing=35
					35:[f295<0.3385] yes=61,no=62,missing=61
						61:leaf=-0.0154294
						62:leaf=0.0186791
					36:[f639<-6170.5] yes=63,no=64,missing=63
						63:leaf=-0.0125069
						64:leaf=0.0297566
		4:[f341<-0.23] yes=9,no=10,missing=9
			9:[f129<0.069] yes=19,no=20,missing=19
				19:[f270<-0.016] yes=37,no=38,missing=37
					37:[f301<-0.049] yes=65,no=66,missing=65
						65:leaf=-0.00429703
						66:leaf=0.0623747
					38:leaf=-0.016138
				20:[f170<-0.0565] yes=39,no=40,missing=39
					39:leaf=0.095418
					40:leaf=0.00394653
			10:[f664<59358] yes=21,no=22,missing=21
				21:[f248<-0.0055] yes=41,no=42,missing=41
					41:[f473<1204.74] yes=67,no=68,missing=67
						67:leaf=-0.01436
						68:leaf=0.0299182
					42:leaf=-0.018455
				22:leaf=0.0232096
	2:[f639<164] yes=5,no=6,missing=5
		5:[f364<16] yes=11,no=12,missing=11
			11:[f638<1344.5] yes=23,no=24,missing=23
				23:[f632<-1.09399e+06] yes=43,no=44,missing=43
					43:[f684<4260.5] yes=69,no=70,missing=69
						69:leaf=0.100863
						70:leaf=-0.0011138
					44:[f328<0.0365] yes=71,no=72,missing=71
						71:leaf=0.0151346
						72:leaf=0.0527595
				24:[f609<-1185] yes=45,no=46,missing=45
					45:[f623<-6893.5] yes=73,no=74,missing=73
						73:leaf=0.0258729
						74:leaf=0.0996889
					46:[f142<-0.234] yes=75,no=76,missing=75
						75:leaf=0.00547914
						76:leaf=0.0371205
			12:[f364<28.5] yes=25,no=26,missing=25
				25:[f277<-500000] yes=47,no=48,missing=47
					47:[f337<0.078] yes=77,no=78,missing=77
						77:leaf=0.0628043
						78:leaf=0.021522
					48:leaf=-0.00491967
				26:[f582<17797] yes=49,no=50,missing=49
					49:leaf=-0.0135931
					50:leaf=0.0187939
		6:[f709<768874] yes=13,no=14,missing=13
			13:[f129<0.1465] yes=27,no=28,missing=27
				27:[f703<-1.5] yes=51,no=52,missing=51
					51:[f714<4455.5] yes=79,no=80,missing=79
						79:leaf=-0.0126019
						80:leaf=0.0099517
					52:leaf=-0.0195685
				28:leaf=0.00534551
			14:[f690<5703.5] yes=29,no=30,missing=29
				29:leaf=0.0341552
				30:leaf=-0.0149721
booster[21]:
0:[f639<-17] yes=1,no=2,missing=1
	1:[f396<686.63] yes=3,no=4,missing=3
		3:[f274<-0.133] yes=7,no=8,missing=7
			7:[f442<678.235] yes=15,no=16,missing=15
				15:[f576<85941] yes=29,no=30,missing=29
					29:[f561<-9697.5] yes=53,no=54,missing=53
						53:leaf=0.0103792
						54:leaf=-0.0148943
					30:leaf=0.0189419
				16:[f513<684.435] yes=31,no=32,missing=31
					31:leaf=0.0307646
					32:[f594<-653666] yes=55,no=56,missing=55
						55:leaf=0.0254999
						56:leaf=-0.00865712
			8:[f312<0.2675] yes=17,no=18,missing=17
				17:[f302<0.0025] yes=33,no=34,missing=33
					33:[f392<1615.26] yes=57,no=58,missing=57
						57:leaf=-0.0159339
						58:leaf=0.00124757
					34:[f601<-1.5] yes=59,no=60,missing=59
						59:leaf=0.0200637
						60:leaf=-0.0109978
				18:[f612<3632] yes=35,no=36,missing=35
					35:leaf=-0.0105528
					36:leaf=0.0399421
		4:[f146<6.5] yes=9,no=10,missing=9
			9:[f105<-0.029] yes=19,no=20,missing=19
				19:leaf=-0.000867414
				20:leaf=0.0716131
			10:[f181<0.0115] yes=21,no=22,missing=21
				21:[f10<0.1435] yes=37,no=38,missing=37
					37:[f569<-60940.5] yes=61,no=62,missing=61
						61:leaf=0.0175534
						62:leaf=-0.0123881
					38:[f684<11905] yes=63,no=64,missing=63
						63:leaf=0.0498075
						64:leaf=-0.00634847
				22:[f446<7.615] yes=39,no=40,missing=39
					39:leaf=0.0496368
					40:leaf=-0.00133433
	2:[f639<164] yes=5,no=6,missing=5
		5:[f341<-0.0345] yes=11,no=12,missing=11
			11:[f513<1432.62] yes=23,no=24,missing=23
				23:[f685<-787.5] yes=41,no=42,missing=41
					41:[f399<1339.42] yes=65,no=66,missing=65
						65:leaf=0.0495912
						66:leaf=0.130429
					42:[f612<112.5] yes=67,no=68,missing=67
						67:leaf=0.00950478
						68:leaf=0.0413298
				24:[f150<-0.0175] yes=43,no=44,missing=43
					43:[f323<0.0035] yes=69,no=70,missing=69
						69:leaf=0.00785127
						70:leaf=0.0792476
					44:[f345<0.204] yes=71,no=72,missing=71
						71:leaf=-0.00471947
						72:leaf=0.0367977
			12:[f146<5.5] yes=25,no=26,missing=25
				25:[f46<0.1115] yes=45,no=46,missing=45
					45:leaf=0.00461283
					46:[f162<-0.25] yes=73,no=74,missing=73
						73:leaf=0.0337249
						74:leaf=0.13432
				26:[f367<1248.58] yes=47,no=48,missing=47
					47:[f72<-0.031] yes=75,no=76,missing=75
						75:leaf=0.0251434
						76:leaf=0.0065581
					48:[f337<0.031] yes=77,no=78,missing=77
						77:leaf=0.130952
						78:leaf=-0.00144313
		6:[f548<1283.26] yes=13,no=14,missing=13
			13:[f87<0.0235] yes=27,no=28,missing=27
				27:[f129<0.1335] yes=49,no=50,missing=49
					49:[f634<33.5] yes=79,no=80,missing=79
						79:leaf=-0.00425255
						80:leaf=-0.0194796
					50:[f613<-4540.5] yes=81,no=82,missing=81
						81:leaf=0.0299176
						82:leaf=-0.012518
				28:[f52<-0.027] yes=51,no=52,missing=51
					51:leaf=-0.0116321
					52:leaf=0.0290236
			14:leaf=0.0192355
booster[22]:
0:[f697<-1.5] yes=1,no=2,missing=1
	1:[f378<620.515] yes=3,no=4,missing=3
		3:[f513<989.565] yes=7,no=8,missing=7
			7:[f393<773.695] yes=15,no=16,missing=15
				15:[f190<0.0935] yes=29,no=30,missing=29
					29:[f321<0.2195] yes=53,no=54,missing=53
						53:leaf=-0.0136714
						54:leaf=0.00910042
					30:[f315<-0.1175] yes=55,no=56,missing=55
						55:leaf=0.0349636
						56:leaf=-0.0136115
				16:[f197<0.1015] yes=31,no=32,missing=31
					31:[f569<782214] yes=57,no=58,missing=57
						57:leaf=-0.00558399
						58:leaf=0.0317128
					32:[f685<-3924] yes=59,no=60,missing=59
						59:leaf=-0.0102531
						60:leaf=0.0572484
			8:[f447<1609.22] yes=17,no=18,missing=17
				17:[f595<2.22535e+06] yes=33,no=34,missing=33
					33:[f50<0.6045] yes=61,no=62,missing=61
						61:leaf=-0.0166812
						62:leaf=0.0070429
					34:leaf=0.0198779
				18:[f120<0.0105] yes=35,no=36,missing=35
					35:leaf=0.0349662
					36:leaf=-0.0132257
		4:[f80<-0.218] yes=9,no=10,missing=9
			9:[f255<-0.0085] yes=19,no=20,missing=19
				19:[f650<11150.5] yes=37,no=38,missing=37
					37:[f120<0.0145] yes=63,no=64,missing=63
						63:leaf=-0.0168318
						64:leaf=0.0173739
					38:leaf=0.0375602
				20:[f118<-0.0365] yes=39,no=40,missing=39
					39:[f631<-4940.5] yes=65,no=66,missing=65
						65:leaf=0.0120718
						66:leaf=0.0898262
					40:leaf=-0.0108016
			10:[f133<0.0295] yes=21,no=22,missing=21
				21:[f685<-5891.5] yes=41,no=42,missing=41
					41:[f574<5449] yes=67,no=68,missing=67
						67:leaf=-0.0182787
						68:leaf=-4.88561e-05
					42:[f635<-5257] yes=69,no=70,missing=69
						69:leaf=0.0364656
						70:leaf=-0.0137577
				22:leaf=0.0295313
	2:[f697<730.5] yes=5,no=6,missing=5
		5:[f159<-0.0925] yes=11,no=12,missing=11
			11:[f379<539.435] yes=23,no=24,missing=23
				23:[f615<-1.5] yes=43,no=44,missing=43
					43:[f377<379.305] yes=71,no=72,missing=71
						71:leaf=0.043546
						72:leaf=0.00208719
					44:[f393<201.605] yes=73,no=74,missing=73
						73:leaf=0.00356901
						74:leaf=0.0291257
				24:[f450<1374.65] yes=45,no=46,missing=45
					45:[f435<641.585] yes=75,no=76,missing=75
						75:leaf=0.00472054
						76:leaf=0.0227752
					46:leaf=0.100919
			12:[f341<-0.116] yes=25,no=26,missing=25
				25:[f447<-499982] yes=47,no=48,missing=47
					47:[f431<108.595] yes=77,no=78,missing=77
						77:leaf=0.0555067
						78:leaf=0.0239796
					48:leaf=-0.0078885
				26:[f250<-0.064] yes=49,no=50,missing=49
					49:[f343<0.0385] yes=79,no=80,missing=79
						79:leaf=0.0440356
						80:leaf=-0.0110582
					50:[f378<1220.21] yes=81,no=82,missing=81
						81:leaf=-0.0138633
						82:leaf=-0.000217217
		6:[f348<0.0065] yes=13,no=14,missing=13
			13:[f341<-0.246] yes=27,no=28,missing=27
				27:leaf=0.0164474
				28:[f182<0.1095] yes=51,no=52,missing=51
					51:[f26<0.0655] yes=83,no=84,missing=83
						83:leaf=-0.0165512
						84:leaf=0.00905226
					52:leaf=0.015106
			14:leaf=0.0184587
booster[23]:
0:[f639<-53.5] yes=1,no=2,missing=1
	1:[f378<557.1] yes=3,no=4,missing=3
		3:[f56<-0.1155] yes=7,no=8,missing=7
			7:[f228<0.0005] yes=15,no=16,missing=15
				15:[f270<0.094] yes=31,no=32,missing=31
					31:[f15<-0.0535] yes=55,no=56,missing=55
						55:leaf=-0.013723
						56:leaf=0.0212565
					32:[f591<-1682] yes=57,no=58,missing=57
						57:leaf=-0.0084929
						58:leaf=0.0316894
				16:[f400<838.44] yes=33,no=34,missing=33
					33:[f639<-109326] yes=59,no=60,missing=59
						59:leaf=0.0111941
						60:leaf=-0.00938473
					34:[f255<-0.0375] yes=61,no=62,missing=61
						61:leaf=0.0432774
						62:leaf=-0.00265602
			8:[f128<0.2375] yes=17,no=18,missing=17
				17:[f319<0.0515] yes=35,no=36,missing=35
					35:[f312<0.223] yes=63,no=64,missing=63
						63:leaf=-0.0154923
						64:leaf=0.00533528
					36:[f268<0.1385] yes=65,no=66,missing=65
						65:leaf=-0.0087239
						66:leaf=0.0265959
				18:[f254<-0.0095] yes=37,no=38,missing=37
					37:[f672<1.5] yes=67,no=68,missing=67
						67:leaf=-0.00333592
						68:leaf=0.0499354
					38:leaf=-0.0155709
		4:[f399<557.98] yes=9,no=10,missing=9
			9:[f364<16] yes=19,no=20,missing=19
				19:[f576<161302] yes=39,no=40,missing=39
					39:leaf=-0.0146444
					40:leaf=0.0198252
				20:[f171<0.015] yes=41,no=42,missing=41
					41:[f638<41202] yes=69,no=70,missing=69
						69:leaf=0.0902965
						70:leaf=-0.000766223
					42:[f110<-0.007] yes=71,no=72,missing=71
						71:leaf=-0.00756787
						72:leaf=0.0360919
			10:[f234<0.0015] yes=21,no=22,missing=21
				21:[f567<304068] yes=43,no=44,missing=43
					43:[f275<0.127] yes=73,no=74,missing=73
						73:leaf=-0.0186684
						74:leaf=0.0075372
					44:leaf=0.008424
				22:leaf=0.0184487
	2:[f639<164] yes=5,no=6,missing=5
		5:[f72<0.078] yes=11,no=12,missing=11
			11:[f378<403.515] yes=23,no=24,missing=23
				23:[f591<-2072] yes=45,no=46,missing=45
					45:[f590<2684.5] yes=75,no=76,missing=75
						75:leaf=0.00843133
						76:leaf=0.13946
					46:[f153<0.0585] yes=77,no=78,missing=77
						77:leaf=0.0346959
						78:leaf=0.0231391
				24:[f423<1366.18] yes=47,no=48,missing=47
					47:[f364<28.5] yes=79,no=80,missing=79
						79:leaf=0.0526273
						80:leaf=-0.00632198
					48:leaf=-0.0127339
			12:[f127<-0.033] yes=25,no=26,missing=25
				25:[f341<-0.173] yes=49,no=50,missing=49
					49:[f260<-0.0585] yes=81,no=82,missing=81
						81:leaf=0.0643165
						82:leaf=-0.0129423
					50:[f140<0.246] yes=83,no=84,missing=83
						83:leaf=0.00298364
						84:leaf=0.0366645
				26:[f33<0.0645] yes=51,no=52,missing=51
					51:[f289<0.0945] yes=85,no=86,missing=85
						85:leaf=-0.0167639
						86:leaf=0.00561072
					52:leaf=0.0379061
		6:[f87<0.0235] yes=13,no=14,missing=13
			13:[f685<-161267] yes=27,no=28,missing=27
				27:leaf=0.00888448
				28:[f369<1220.98] yes=53,no=54,missing=53
					53:[f31<0.1735] yes=87,no=88,missing=87
						87:leaf=-0.0185029
						88:leaf=0.00441045
					54:leaf=0.00993612
			14:[f633<1.29581e+06] yes=29,no=30,missing=29
				29:leaf=-0.0109355
				30:leaf=0.0360736
booster[24]:
0:[f639<-81.5] yes=1,no=2,missing=1
	1:[f56<-0.1385] yes=3,no=4,missing=3
		3:[f364<12.5] yes=7,no=8,missing=7
			7:[f118<0.0465] yes=15,no=16,missing=15
				15:[f325<0.0805] yes=31,no=32,missing=31
					31:[f144<0.0455] yes=53,no=54,missing=53
						53:leaf=-0.0125898
						54:leaf=0.0156037
					32:[f192<0.0785] yes=55,no=56,missing=55
						55:leaf=-0.00318955
						56:leaf=0.0497481
				16:[f631<-3013] yes=33,no=34,missing=33
					33:[f606<7338.5] yes=57,no=58,missing=57
						57:leaf=-0.0165087
						58:leaf=0.0299206
					34:[f230<-0.1675] yes=59,no=60,missing=59
						59:leaf=0.00673932
						60:leaf=0.0699141
			8:[f19<0.0175] yes=17,no=18,missing=17
				17:[f215<0.0955] yes=35,no=36,missing=35
					35:[f202<0.0645] yes=61,no=62,missing=61
						61:leaf=-0.0160006
						62:leaf=0.00747582
					36:leaf=0.0290105
				18:leaf=0.0671531
		4:[f449<1610.11] yes=9,no=10,missing=9
			9:[f396<1161.08] yes=19,no=20,missing=19
				19:[f50<0.6045] yes=37,no=38,missing=37
					37:[f170<-0.1165] yes=63,no=64,missing=63
						63:leaf=-0.0117173
						64:leaf=-0.015944
					38:[f152<-0.0515] yes=65,no=66,missing=65
						65:leaf=0.0369218
						66:leaf=-0.012793
				20:[f10<0.1435] yes=39,no=40,missing=39
					39:[f642<53830.5] yes=67,no=68,missing=67
						67:leaf=-0.0146007
						68:leaf=0.0207564
					40:[f642<2877] yes=69,no=70,missing=69
						69:leaf=0.049784
						70:leaf=-0.0112367
			10:[f170<0.0485] yes=21,no=22,missing=21
				21:[f659<-5.5] yes=41,no=42,missing=41
					41:leaf=-5.24759e-05
					42:leaf=-0.0105562
				22:leaf=0.0399232
	2:[f639<700] yes=5,no=6,missing=5
		5:[f399<63.175] yes=11,no=12,missing=11
			11:[f260<-0.043] yes=23,no=24,missing=23
				23:[f615<-1.5] yes=43,no=44,missing=43
					43:[f363<0.5] yes=71,no=72,missing=71
						71:leaf=0.0845215
						72:leaf=0.047209
					44:[f462<676.445] yes=73,no=74,missing=73
						73:leaf=0.0149185
						74:leaf=0.0499904
				24:[f667<-935.5] yes=45,no=46,missing=45
					45:[f55<-0.1025] yes=75,no=76,missing=75
						75:leaf=0.0522122
						76:leaf=0.00123652
					46:[f594<1.5] yes=77,no=78,missing=77
						77:leaf=-0.0161208
						78:leaf=0.0147356
			12:[f635<-1066] yes=25,no=26,missing=25
				25:[f35<0.0035] yes=47,no=48,missing=47
					47:[f516<673.12] yes=79,no=80,missing=79
						79:leaf=0.0329257
						80:leaf=0.166683
					48:leaf=-0.00156523
				26:[f149<0.1095] yes=49,no=50,missing=49
					49:[f153<0.0615] yes=81,no=82,missing=81
						81:leaf=0.0288336
						82:leaf=0.0149429
					50:[f224<-0.0195] yes=83,no=84,missing=83
						83:leaf=0.0559537
						84:leaf=0.015748
		6:[f87<0.0235] yes=13,no=14,missing=13
			13:[f369<1283.32] yes=27,no=28,missing=27
				27:[f129<0.1335] yes=51,no=52,missing=51
					51:[f275<0.2985] yes=85,no=86,missing=85
						85:leaf=-0.0195006
						86:leaf=0.0034244
					52:[f43<0.022] yes=87,no=88,missing=87
						87:leaf=-0.0156811
						88:leaf=0.024364
				28:leaf=0.0191015
			14:[f591<-1044] yes=29,no=30,missing=29
				29:leaf=0.0364392
				30:leaf=-0.0111318
booster[25]:
0:[f639<-53.5] yes=1,no=2,missing=1
	1:[f378<557.1] yes=3,no=4,missing=3
		3:[f274<-0.127] yes=7,no=8,missing=7
			7:[f487<678.235] yes=15,no=16,missing=15
				15:[f649<-230190] yes=29,no=30,missing=29
					29:leaf=0.0202181
					30:[f144<0.0455] yes=53,no=54,missing=53
						53:leaf=-0.0155291
						54:leaf=0.0167715
				16:[f267<0.0365] yes=31,no=32,missing=31
					31:[f325<0.0695] yes=55,no=56,missing=55
						55:leaf=-0.0102661
						56:leaf=2.6658e-05
					32:[f170<-0.0785] yes=57,no=58,missing=57
						57:leaf=-0.00954307
						58:leaf=0.0142532
			8:[f16<0.0245] yes=17,no=18,missing=17
				17:[f312<0.09] yes=33,no=34,missing=33
					33:[f293<0.1215] yes=59,no=60,missing=59
						59:leaf=-0.0155968
						60:leaf=0.00830666
					34:[f591<-3051.5] yes=61,no=62,missing=61
						61:leaf=0.00468647
						62:leaf=-0.0178843
				18:[f150<0.179] yes=35,no=36,missing=35
					35:[f89<0.02] yes=63,no=64,missing=63
						63:leaf=-0.0170342
						64:leaf=0.0103444
					36:[f205<-0.0335] yes=65,no=66,missing=65
						65:leaf=-0.0121213
						66:leaf=0.0398014
		4:[f399<557.98] yes=9,no=10,missing=9
			9:[f590<19.5] yes=19,no=20,missing=19
				19:[f281<-0.1375] yes=37,no=38,missing=37
					37:[f684<132410] yes=67,no=68,missing=67
						67:leaf=-0.0156999
						68:leaf=-0.000131442
					38:[f378<1010.78] yes=69,no=70,missing=69
						69:leaf=0.0453313
						70:leaf=-0.00707527
				20:[f159<0.0185] yes=39,no=40,missing=39
					39:[f89<0] yes=71,no=72,missing=71
						71:leaf=0.0197556
						72:leaf=0.0914002
					40:leaf=-0.00264343
			10:[f32<-0.0615] yes=21,no=22,missing=21
				21:[f446<1.465] yes=41,no=42,missing=41
					41:[f613<-3753.5] yes=73,no=74,missing=73
						73:leaf=0.0199259
						74:leaf=-0.0107395
					42:[f488<803.085] yes=75,no=76,missing=75
						75:leaf=-0.0185535
						76:leaf=-4.35371e-05
				22:leaf=0.0188709
	2:[f639<672.5] yes=5,no=6,missing=5
		5:[f399<6.72] yes=11,no=12,missing=11
			11:[f3<0.0535] yes=23,no=24,missing=23
				23:[f379<1130.51] yes=43,no=44,missing=43
					43:[f463<835.055] yes=77,no=78,missing=77
						77:leaf=0.0451717
						78:leaf=0.0818349
					44:[f198<-0.07] yes=79,no=80,missing=79
						79:leaf=0.0373738
						80:leaf=-0.00778373
				24:[f118<-0.0145] yes=45,no=46,missing=45
					45:[f671<-1.5] yes=81,no=82,missing=81
						81:leaf=0.011163
						82:leaf=-0.0169374
					46:[f609<-2338] yes=83,no=84,missing=83
						83:leaf=0.0741897
						84:leaf=0.00673103
			12:[f70<0.0385] yes=25,no=26,missing=25
				25:[f591<-1083] yes=47,no=48,missing=47
					47:[f60<-0.063] yes=85,no=86,missing=85
						85:leaf=-0.00360485
						86:leaf=0.131277
					48:[f243<0.0825] yes=87,no=88,missing=87
						87:leaf=0.0193377
						88:leaf=0.0367925
				26:[f166<0.0055] yes=49,no=50,missing=49
					49:[f63<0.0465] yes=89,no=90,missing=89
						89:leaf=0.0870209
						90:leaf=0.0252267
					50:[f345<-0.059] yes=91,no=92,missing=91
						91:leaf=0.072935
						92:leaf=0.00712687
		6:[f691<-527812] yes=13,no=14,missing=13
			13:leaf=0.0177472
			14:[f141<0.167] yes=27,no=28,missing=27
				27:[f293<0.0855] yes=51,no=52,missing=51
					51:[f26<0.0655] yes=93,no=94,missing=93
						93:leaf=-0.0179636
						94:leaf=0.000637766
					52:leaf=0.00896151
				28:leaf=0.0101666
booster[26]:
0:[f639<-81.5] yes=1,no=2,missing=1
	1:[f396<620.53] yes=3,no=4,missing=3
		3:[f513<989.44] yes=7,no=8,missing=7
			7:[f471<804.475] yes=15,no=16,missing=15
				15:[f519<773.685] yes=29,no=30,missing=29
					29:[f192<0.0355] yes=51,no=52,missing=51
						51:leaf=-0.0135985
						52:leaf=0.00235989
					30:[f566<59093] yes=53,no=54,missing=53
						53:leaf=-0.0097103
						54:leaf=0.00797996
				16:[f158<-0.0805] yes=31,no=32,missing=31
					31:leaf=0.0577321
					32:[f17<0.0045] yes=55,no=56,missing=55
						55:leaf=-0.0152965
						56:leaf=0.0248513
			8:[f182<0.1575] yes=17,no=18,missing=17
				17:[f665<-77107] yes=33,no=34,missing=33
					33:[f224<0.1115] yes=57,no=58,missing=57
						57:leaf=-0.0114345
						58:leaf=0.023016
					34:[f369<1599.74] yes=59,no=60,missing=59
						59:leaf=-0.0162607
						60:leaf=0.0048589
				18:leaf=0.017519
		4:[f393<910.585] yes=9,no=10,missing=9
			9:[f224<0.046] yes=19,no=20,missing=19
				19:[f57<0.0505] yes=35,no=36,missing=35
					35:[f364<24.5] yes=61,no=62,missing=61
						61:leaf=0.0562113
						62:leaf=-0.0114987
					36:[f268<-0.0275] yes=63,no=64,missing=63
						63:leaf=-0.0113455
						64:leaf=-9.88376e-05
				20:leaf=-0.0139157
			10:[f684<3541.5] yes=21,no=22,missing=21
				21:[f582<470] yes=37,no=38,missing=37
					37:leaf=-0.0124803
					38:leaf=0.0379536
				22:[f554<1.5] yes=39,no=40,missing=39
					39:leaf=-0.0182804
					40:leaf=0.00454477
	2:[f639<672.5] yes=5,no=6,missing=5
		5:[f417<5.22] yes=11,no=12,missing=11
			11:[f260<-0.019] yes=23,no=24,missing=23
				23:[f55<-0.0325] yes=41,no=42,missing=41
					41:[f364<4.5] yes=65,no=66,missing=65
						65:leaf=0.0668172
						66:leaf=0.0407238
					42:[f609<-2939] yes=67,no=68,missing=67
						67:leaf=0.0257815
						68:leaf=-0.0143716
				24:[f195<-0.0035] yes=43,no=44,missing=43
					43:[f194<-0.1915] yes=69,no=70,missing=69
						69:leaf=-0.00474885
						70:leaf=0.040501
					44:[f2<0.0325] yes=71,no=72,missing=71
						71:leaf=-0.0106638
						72:leaf=0.0190548
			12:[f70<0.0865] yes=25,no=26,missing=25
				25:[f651<-1066] yes=45,no=46,missing=45
					45:[f34<791.5] yes=73,no=74,missing=73
						73:leaf=0.109105
						74:leaf=-0.00100667
					46:[f590<2463.5] yes=75,no=76,missing=75
						75:leaf=0.0152742
						76:leaf=0.025693
				26:[f162<0.2695] yes=47,no=48,missing=47
					47:[f166<0.0595] yes=77,no=78,missing=77
						77:leaf=0.0788081
						78:leaf=0.0255539
					48:[f23<-0.04] yes=79,no=80,missing=79
						79:leaf=-0.0137212
						80:leaf=0.0292111
		6:[f369<1222.05] yes=13,no=14,missing=13
			13:[f595<2.28958e+06] yes=27,no=28,missing=27
				27:[f275<0.0925] yes=49,no=50,missing=49
					49:[f129<0.1335] yes=81,no=82,missing=81
						81:leaf=-0.0188595
						82:leaf=-0.00357552
					50:[f171<-0.143] yes=83,no=84,missing=83
						83:leaf=0.0275775
						84:leaf=-0.0141109
				28:leaf=0.0198424
			14:leaf=0.0198959
booster[27]:
0:[f639<-81.5] yes=1,no=2,missing=1
	1:[f378<638.9] yes=3,no=4,missing=3
		3:[f513<989.44] yes=7,no=8,missing=7
			7:[f519<773.685] yes=15,no=16,missing=15
				15:[f319<0.0335] yes=29,no=30,missing=29
					29:[f87<0.0335] yes=55,no=56,missing=55
						55:leaf=-0.0135723
						56:leaf=-0.00517353
					30:[f555<-58630] yes=57,no=58,missing=57
						57:leaf=-0.0163166
						58:leaf=0.017461
				16:[f197<0.0725] yes=31,no=32,missing=31
					31:[f569<782214] yes=59,no=60,missing=59
						59:leaf=-0.00800439
						60:leaf=0.0291949
					32:[f62<0.0395] yes=61,no=62,missing=61
						61:leaf=0.00284741
						62:leaf=0.0695542
			8:[f403<1615.26] yes=17,no=18,missing=17
				17:[f447<1609.22] yes=33,no=34,missing=33
					33:[f50<0.5825] yes=63,no=64,missing=63
						63:leaf=-0.0161172
						64:leaf=0.00209982
					34:[f252<-0.011] yes=65,no=66,missing=65
						65:leaf=-0.012887
						66:leaf=0.0353266
				18:[f46<-0.129] yes=35,no=36,missing=35
					35:leaf=0.0357315
					36:leaf=-0.0126485
		4:[f80<-0.218] yes=9,no=10,missing=9
			9:[f474<775.965] yes=19,no=20,missing=19
				19:[f316<-0.0035] yes=37,no=38,missing=37
					37:leaf=0.0819881
					38:leaf=0.00406923
				20:[f159<-0.0035] yes=39,no=40,missing=39
					39:[f462<1040.89] yes=67,no=68,missing=67
						67:leaf=-0.0111599
						68:leaf=0.0439251
					40:[f583<-148212] yes=69,no=70,missing=69
						69:leaf=0.00985985
						70:leaf=-0.0161307
			10:[f44<-0.0555] yes=21,no=22,missing=21
				21:leaf=0.0130363
				22:[f489<783.95] yes=41,no=42,missing=41
					41:leaf=-0.0184767
					42:leaf=0.00484813
	2:[f639<164] yes=5,no=6,missing=5
		5:[f364<16] yes=11,no=12,missing=11
			11:[f70<0.1725] yes=23,no=24,missing=23
				23:[f635<-40] yes=43,no=44,missing=43
					43:[f625<-1.5] yes=71,no=72,missing=71
						71:leaf=-0.00282046
						72:leaf=0.102597
					44:[f75<-0.0185] yes=73,no=74,missing=73
						73:leaf=0.0201543
						74:leaf=0.0778418
				24:[f303<-0.0345] yes=45,no=46,missing=45
					45:[f45<-0.03] yes=75,no=76,missing=75
						75:leaf=0.0171661
						76:leaf=0.0770084
					46:leaf=0.00272684
			12:[f364<28.5] yes=25,no=26,missing=25
				25:[f80<0.0525] yes=47,no=48,missing=47
					47:[f277<-500000] yes=77,no=78,missing=77
						77:leaf=0.0469377
						78:leaf=-0.00325601
					48:leaf=-0.0105408
				26:[f626<39621.5] yes=49,no=50,missing=49
					49:leaf=-0.0173143
					50:leaf=0.0177189
		6:[f173<0.256] yes=13,no=14,missing=13
			13:[f87<-0.0105] yes=27,no=28,missing=27
				27:[f639<636125] yes=51,no=52,missing=51
					51:[f639<559468] yes=79,no=80,missing=79
						79:leaf=-0.0132844
						80:leaf=0.00995706
					52:[f180<0.0785] yes=81,no=82,missing=81
						81:leaf=-0.0194698
						82:leaf=-7.982e-05
				28:[f583<-2198.5] yes=53,no=54,missing=53
					53:[f602<8571] yes=83,no=84,missing=83
						83:leaf=0.0499326
						84:leaf=-0.0108479
					54:leaf=-0.0149425
			14:leaf=0.0199228
booster[28]:
0:[f639<-16.5] yes=1,no=2,missing=1
	1:[f577<-10307.5] yes=3,no=4,missing=3
		3:[f145<-0.0565] yes=7,no=8,missing=7
			7:[f167<-0.0335] yes=15,no=16,missing=15
				15:[f174<-0.111] yes=29,no=30,missing=29
					29:leaf=0.0659096
					30:[f567<-1.5] yes=51,no=52,missing=51
						51:leaf=-0.0133228
						52:leaf=0.0370847
				16:[f202<0.174] yes=31,no=32,missing=31
					31:[f556<4903.5] yes=53,no=54,missing=53
						53:leaf=-0.0152466
						54:leaf=0.0198987
					32:[f650<2828.5] yes=55,no=56,missing=55
						55:leaf=0.0342647
						56:leaf=-0.011167
			8:leaf=0.0537568
		4:[f399<989.44] yes=9,no=10,missing=9
			9:[f462<773.925] yes=17,no=18,missing=17
				17:[f574<-2.16527e+06] yes=33,no=34,missing=33
					33:leaf=0.0210045
					34:[f84<0.0735] yes=57,no=58,missing=57
						57:leaf=-0.0134514
						58:leaf=0.0161101
				18:[f634<727.5] yes=35,no=36,missing=35
					35:[f81<0.0975] yes=59,no=60,missing=59
						59:leaf=0.00089335
						60:leaf=0.0419671
					36:[f566<55433] yes=61,no=62,missing=61
						61:leaf=-0.00994215
						62:leaf=0.00268464
			10:[f447<1609.22] yes=19,no=20,missing=19
				19:[f190<-0.0005] yes=37,no=38,missing=37
					37:[f403<1615.26] yes=63,no=64,missing=63
						63:leaf=-0.0162704
						64:leaf=0.00662267
					38:[f610<3.5] yes=65,no=66,missing=65
						65:leaf=-0.0124851
						66:leaf=0.0288129
				20:[f81<-0.0015] yes=39,no=40,missing=39
					39:leaf=-0.0124846
					40:leaf=0.0353134
	2:[f639<700] yes=5,no=6,missing=5
		5:[f399<6.72] yes=11,no=12,missing=11
			11:[f615<-1.5] yes=21,no=22,missing=21
				21:[f535<1430.22] yes=41,no=42,missing=41
					41:[f30<0.09] yes=67,no=68,missing=67
						67:leaf=0.047304
						68:leaf=0.00990867
					42:leaf=-0.0133268
				22:[f462<676.215] yes=43,no=44,missing=43
					43:[f160<0.0705] yes=69,no=70,missing=69
						69:leaf=-0.000275081
						70:leaf=0.0308188
					44:[f90<-0.055] yes=71,no=72,missing=71
						71:leaf=0.0124079
						72:leaf=0.0485819
			12:[f157<0.0305] yes=23,no=24,missing=23
				23:[f75<-0.022] yes=45,no=46,missing=45
					45:[f634<341.5] yes=73,no=74,missing=73
						73:leaf=0.00900892
						74:leaf=0.0223548
					46:[f316<-0.0045] yes=75,no=76,missing=75
						75:leaf=0.00910156
						76:leaf=0.104907
				24:[f166<-0.1915] yes=47,no=48,missing=47
					47:[f652<65848] yes=77,no=78,missing=77
						77:leaf=0.0859667
						78:leaf=0.0260914
					48:[f684<1113.5] yes=79,no=80,missing=79
						79:leaf=-0.00196518
						80:leaf=0.0397756
		6:[f384<1292.78] yes=13,no=14,missing=13
			13:[f275<0.4065] yes=25,no=26,missing=25
				25:[f129<0.1465] yes=49,no=50,missing=49
					49:[f182<0.0905] yes=81,no=82,missing=81
						81:leaf=-0.0188947
						82:leaf=0.00492186
					50:leaf=0.00696637
				26:leaf=0.00654176
			14:[f62<0.0085] yes=27,no=28,missing=27
				27:leaf=0.0268692
				28:leaf=-0.0138167
booster[29]:
0:[f639<-81.5] yes=1,no=2,missing=1
	1:[f378<557.1] yes=3,no=4,missing=3
		3:[f12<-0.0045] yes=7,no=8,missing=7
			7:[f293<0.1155] yes=15,no=16,missing=15
				15:[f130<0.0985] yes=29,no=30,missing=29
					29:[f635<-689726] yes=53,no=54,missing=53
						53:leaf=-0.000276881
						54:leaf=-0.0159609
					30:[f692<3468.5] yes=55,no=56,missing=55
						55:leaf=-0.0122764
						56:leaf=0.0298643
				16:[f62<0.0285] yes=31,no=32,missing=31
					31:leaf=-0.0142327
					32:leaf=0.0390362
			8:[f228<0.0015] yes=17,no=18,missing=17
				17:[f487<1.235] yes=33,no=34,missing=33
					33:[f106<0.1375] yes=57,no=58,missing=57
						57:leaf=-0.0121137
						58:leaf=0.0488041
					34:[f569<782542] yes=59,no=60,missing=59
						59:leaf=-0.0125623
						60:leaf=0.0158299
				18:[f118<0.0275] yes=35,no=36,missing=35
					35:[f9<0.1095] yes=61,no=62,missing=61
						61:leaf=-0.0109383
						62:leaf=0.00605476
					36:[f388<876.855] yes=63,no=64,missing=63
						63:leaf=0.000209146
						64:leaf=0.0411001
		4:[f399<557.98] yes=9,no=10,missing=9
			9:[f378<792.84] yes=19,no=20,missing=19
				19:[f90<-0.0005] yes=37,no=38,missing=37
					37:leaf=-0.0116626
					38:[f282<-0.1425] yes=65,no=66,missing=65
						65:leaf=0.0118726
						66:leaf=0.0979103
				20:[f206<-0.2565] yes=39,no=40,missing=39
					39:[f159<-0.0305] yes=67,no=68,missing=67
						67:leaf=0.0133663
						68:leaf=-0.0166886
					40:[f127<-0.0025] yes=69,no=70,missing=69
						69:leaf=-0.0115963
						70:leaf=0.0577427
			10:[f32<-0.0365] yes=21,no=22,missing=21
				21:[f221<0.109] yes=41,no=42,missing=41
					41:[f552<15883] yes=71,no=72,missing=71
						71:leaf=-0.0184829
						72:leaf=-4.39768e-05
					42:[f202<-0.052] yes=73,no=74,missing=73
						73:leaf=0.0287387
						74:leaf=-0.0117934
				22:leaf=0.0246203
	2:[f639<164] yes=5,no=6,missing=5
		5:[f364<16] yes=11,no=12,missing=11
			11:[f685<-3375.5] yes=23,no=24,missing=23
				23:[f106<0.1005] yes=43,no=44,missing=43
					43:[f636<3623] yes=75,no=76,missing=75
						75:leaf=0.0283655
						76:leaf=0.0516002
					44:[f394<239.92] yes=77,no=78,missing=77
						77:leaf=0.0432811
						78:leaf=0.0104776
				24:[f582<2484.5] yes=45,no=46,missing=45
					45:[f566<-78749.5] yes=79,no=80,missing=79
						79:leaf=0.0531894
						80:leaf=0.0098884
					46:[f650<3478.5] yes=81,no=82,missing=81
						81:leaf=0.0316814
						82:leaf=0.0182082
			12:[f364<28.5] yes=25,no=26,missing=25
				25:[f277<-500000] yes=47,no=48,missing=47
					47:[f97<0.05] yes=83,no=84,missing=83
						83:leaf=0.045499
						84:leaf=0.000703336
					48:leaf=-0.00566207
				26:[f602<3739] yes=49,no=50,missing=49
					49:leaf=-0.014013
					50:leaf=0.00855717
		6:[f691<-526758] yes=13,no=14,missing=13
			13:leaf=0.0182828
			14:[f400<1582.64] yes=27,no=28,missing=27
				27:[f31<0.1735] yes=51,no=52,missing=51
					51:[f267<0.1035] yes=85,no=86,missing=85
						85:leaf=-0.018361
						86:leaf=-0.00446183
					52:leaf=0.00404012
				28:leaf=0.00995027
booster[30]:
0:[f639<-81.5] yes=1,no=2,missing=1
	1:[f378<638.895] yes=3,no=4,missing=3
		3:[f56<-0.1625] yes=7,no=8,missing=7
			7:[f17<-0.0035] yes=15,no=16,missing=15
				15:[f613<560570] yes=29,no=30,missing=29
					29:[f244<-0.0045] yes=53,no=54,missing=53
						53:leaf=-0.0154385
						54:leaf=-0.00290141
					30:leaf=0.0179684
				16:[f680<1.12868e+06] yes=31,no=32,missing=31
					31:[f135<0.1915] yes=55,no=56,missing=55
						55:leaf=-0.00669623
						56:leaf=0.0329585
					32:leaf=0.0399473
			8:[f442<1.225] yes=17,no=18,missing=17
				17:leaf=0.0224839
				18:[f447<1609.22] yes=33,no=34,missing=33
					33:[f312<0.2675] yes=57,no=58,missing=57
						57:leaf=-0.0145471
						58:leaf=0.0135745
					34:[f639<-6170.5] yes=59,no=60,missing=59
						59:leaf=-0.0122407
						60:leaf=0.0363888
		4:[f80<-0.229] yes=9,no=10,missing=9
			9:[f118<-0.0785] yes=19,no=20,missing=19
				19:[f129<-0.1] yes=35,no=36,missing=35
					35:[f385<766.51] yes=61,no=62,missing=61
						61:leaf=-0.0119694
						62:leaf=0.00984334
					36:[f100<-0.0995] yes=63,no=64,missing=63
						63:leaf=0.0616551
						64:leaf=-0.0111155
				20:[f434<1032.39] yes=37,no=38,missing=37
					37:leaf=-0.0131811
					38:leaf=-0.00012676
			10:[f133<0.0325] yes=21,no=22,missing=21
				21:[f446<1.155] yes=39,no=40,missing=39
					39:leaf=0.00840697
					40:leaf=-0.0185623
				22:leaf=0.0297292
	2:[f639<164] yes=5,no=6,missing=5
		5:[f378<181.52] yes=11,no=12,missing=11
			11:[f70<0.0235] yes=23,no=24,missing=23
				23:[f109<0.179] yes=41,no=42,missing=41
					41:[f685<326968] yes=65,no=66,missing=65
						65:leaf=0.0173846
						66:leaf=0.059419
					42:[f167<-0.0925] yes=67,no=68,missing=67
						67:leaf=0.0136916
						68:leaf=0.0767958
				24:[f164<-0.17] yes=43,no=44,missing=43
					43:[f80<-0.0825] yes=69,no=70,missing=69
						69:leaf=0.0207692
						70:leaf=0.0685484
					44:[f323<-0.007] yes=71,no=72,missing=71
						71:leaf=0.0590903
						72:leaf=0.00256456
			12:[f417<880.315] yes=25,no=26,missing=25
				25:[f364<28.5] yes=45,no=46,missing=45
					45:[f277<-500000] yes=73,no=74,missing=73
						73:leaf=0.0404765
						74:leaf=-0.00682333
					46:[f224<-0.0035] yes=75,no=76,missing=75
						75:leaf=0.00804231
						76:leaf=-0.0138326
				26:[f638<2859] yes=47,no=48,missing=47
					47:leaf=0.0263412
					48:leaf=-0.0151225
		6:[f709<2.28793e+06] yes=13,no=14,missing=13
			13:[f167<-0.1295] yes=27,no=28,missing=27
				27:[f104<0.071] yes=49,no=50,missing=49
					49:[f691<880249] yes=77,no=78,missing=77
						77:leaf=-0.0165436
						78:leaf=0.00778033
					50:leaf=0.029856
				28:[f655<-5465.5] yes=51,no=52,missing=51
					51:leaf=-5.41768e-05
					52:leaf=-0.0194473
			14:leaf=0.0199316
booster[31]:
0:[f639<-1.5] yes=1,no=2,missing=1
	1:[f378<557.02] yes=3,no=4,missing=3
		3:[f474<978.095] yes=7,no=8,missing=7
			7:[f519<773.685] yes=15,no=16,missing=15
				15:[f192<0.0275] yes=31,no=32,missing=31
					31:[f574<-2.16527e+06] yes=51,no=52,missing=51
						51:leaf=0.0225237
						52:leaf=-0.0134861
					32:[f337<0.0085] yes=53,no=54,missing=53
						53:leaf=-0.00995278
						54:leaf=0.0309377
				16:[f569<782214] yes=33,no=34,missing=33
					33:[f594<-550514] yes=55,no=56,missing=55
						55:leaf=0.0240477
						56:leaf=-0.006504
					34:leaf=0.0404272
			8:[f383<1599.7] yes=17,no=18,missing=17
				17:[f182<0.1575] yes=35,no=36,missing=35
					35:[f447<1610.11] yes=57,no=58,missing=57
						57:leaf=-0.0162805
						58:leaf=0.00766637
					36:leaf=0.0193512
				18:[f268<-0.0095] yes=37,no=38,missing=37
					37:[f114<0] yes=59,no=60,missing=59
						59:leaf=-0.0175057
						60:leaf=0.0147462
					38:[f127<-0.063] yes=61,no=62,missing=61
						61:leaf=0.0664525
						62:leaf=-0.012326
		4:[f399<557.98] yes=9,no=10,missing=9
			9:[f43<0.022] yes=19,no=20,missing=19
				19:[f10<0.055] yes=39,no=40,missing=39
					39:[f611<-8046] yes=63,no=64,missing=63
						63:leaf=-0.000131373
						64:leaf=-0.0159484
					40:[f93<-0.004] yes=65,no=66,missing=65
						65:leaf=-0.0124074
						66:leaf=0.0435769
				20:[f287<-0.1405] yes=41,no=42,missing=41
					41:[f697<-4021.5] yes=67,no=68,missing=67
						67:leaf=-0.000545502
						68:leaf=0.0968516
					42:leaf=-0.00537382
			10:[f187<-0.0005] yes=21,no=22,missing=21
				21:[f120<0.0095] yes=43,no=44,missing=43
					43:[f62<0.0135] yes=69,no=70,missing=69
						69:leaf=-0.0119545
						70:leaf=0.0199476
					44:leaf=-0.0185253
				22:leaf=0.0262428
	2:[f639<164] yes=5,no=6,missing=5
		5:[f659<-1.5] yes=11,no=12,missing=11
			11:[f46<0.1295] yes=23,no=24,missing=23
				23:leaf=0.11246
				24:leaf=0.0160732
			12:[f364<16] yes=25,no=26,missing=25
				25:[f446<7.785] yes=45,no=46,missing=45
					45:[f333<-0.0125] yes=71,no=72,missing=71
						71:leaf=0.0204125
						72:leaf=0.00757898
					46:[f0<0.012] yes=73,no=74,missing=73
						73:leaf=0.0282397
						74:leaf=-0.0123701
				26:[f364<28.5] yes=47,no=48,missing=47
					47:[f277<-500000] yes=75,no=76,missing=75
						75:leaf=0.0405433
						76:leaf=-0.00493298
					48:[f576<49116] yes=77,no=78,missing=77
						77:leaf=-0.0151843
						78:leaf=0.0177791
		6:[f105<0.104] yes=13,no=14,missing=13
			13:[f462<1646.97] yes=27,no=28,missing=27
				27:[f230<0.0795] yes=49,no=50,missing=49
					49:[f556<68789] yes=79,no=80,missing=79
						79:leaf=-0.0188793
						80:leaf=-4.56034e-05
					50:[f642<2732.5] yes=81,no=82,missing=81
						81:leaf=0.00994559
						82:leaf=-0.0119729
				28:leaf=0.00995379
			14:[f384<67.835] yes=29,no=30,missing=29
				29:leaf=-0.0112908
				30:leaf=0.0199492
booster[32]:
0:[f651<-2.5] yes=1,no=2,missing=1
	1:[f378<673.335] yes=3,no=4,missing=3
		3:[f513<989.44] yes=7,no=8,missing=7
			7:[f526<792.645] yes=15,no=16,missing=15
				15:[f147<0.044] yes=29,no=30,missing=29
					29:[f553<86244.5] yes=49,no=50,missing=49
						49:leaf=-0.0118856
						50:leaf=0.0223758
					30:[f182<0.0645] yes=51,no=52,missing=51
						51:leaf=-0.00658114
						52:leaf=0.0185544
				16:leaf=0.0439325
			8:[f392<1615.26] yes=17,no=18,missing=17
				17:[f206<0.6065] yes=31,no=32,missing=31
					31:[f611<-1.54681e+06] yes=53,no=54,missing=53
						53:leaf=0.012379
						54:leaf=-0.0159043
					32:leaf=0.0139336
				18:[f402<1628.74] yes=33,no=34,missing=33
					33:leaf=0.042781
					34:[f106<-0.2555] yes=55,no=56,missing=55
						55:leaf=0.00920671
						56:leaf=-0.0167064
		4:[f45<0.08] yes=9,no=10,missing=9
			9:[f154<-0.095] yes=19,no=20,missing=19
				19:[f634<11084.5] yes=35,no=36,missing=35
					35:[f51<0.024] yes=57,no=58,missing=57
						57:leaf=-0.000470181
						58:leaf=0.0722271
					36:[f417<1244.47] yes=59,no=60,missing=59
						59:leaf=-0.0121496
						60:leaf=0.00994657
				20:[f474<687.415] yes=37,no=38,missing=37
					37:leaf=0.0392771
					38:[f414<724.71] yes=61,no=62,missing=61
						61:leaf=-0.0110731
						62:leaf=0.0198554
			10:[f266<-0.086] yes=21,no=22,missing=21
				21:leaf=0.0750249
				22:leaf=0.00751422
	2:[f651<730.5] yes=5,no=6,missing=5
		5:[f378<400.955] yes=11,no=12,missing=11
			11:[f272<0.0095] yes=23,no=24,missing=23
				23:[f30<0.011] yes=39,no=40,missing=39
					39:[f671<-1.5] yes=63,no=64,missing=63
						63:leaf=0.0287631
						64:leaf=0.0174988
					40:[f685<-3626] yes=65,no=66,missing=65
						65:leaf=0.0186645
						66:leaf=-0.00236941
				24:[f60<-0.1045] yes=41,no=42,missing=41
					41:[f379<258.66] yes=67,no=68,missing=67
						67:leaf=-0.0076359
						68:leaf=0.0256982
					42:[f60<0.0305] yes=69,no=70,missing=69
						69:leaf=-0.0143996
						70:leaf=0.0132082
			12:[f113<-0.1945] yes=25,no=26,missing=25
				25:[f283<-0.046] yes=43,no=44,missing=43
					43:[f590<68] yes=71,no=72,missing=71
						71:leaf=0.0320336
						72:leaf=-0.00644839
					44:[f407<641.385] yes=73,no=74,missing=73
						73:leaf=-0.0174521
						74:leaf=0.0126172
				26:[f341<0.022] yes=45,no=46,missing=45
					45:[f596<6813.5] yes=75,no=76,missing=75
						75:leaf=0.0445755
						76:leaf=0.0113429
					46:[f576<43474.5] yes=77,no=78,missing=77
						77:leaf=0.00970677
						78:leaf=-0.0107738
		6:[f393<19.725] yes=13,no=14,missing=13
			13:leaf=0.0298557
			14:[f255<0.1605] yes=27,no=28,missing=27
				27:[f555<-2.5] yes=47,no=48,missing=47
					47:leaf=0.0139074
					48:[f312<0.066] yes=79,no=80,missing=79
						79:leaf=-0.0149412
						80:leaf=0.00988923
				28:leaf=0.018111
booster[33]:
0:[f639<-81.5] yes=1,no=2,missing=1
	1:[f396<557.1] yes=3,no=4,missing=3
		3:[f393<989.325] yes=7,no=8,missing=7
			7:[f60<-0.006] yes=15,no=16,missing=15
				15:[f29<0.0975] yes=31,no=32,missing=31
					31:[f395<1414.18] yes=57,no=58,missing=57
						57:leaf=-0.0127561
						58:leaf=0.0257764
					32:[f562<2.5] yes=59,no=60,missing=59
						59:leaf=0.0491457
						60:leaf=-0.0140642
				16:[f9<-0.0145] yes=33,no=34,missing=33
					33:[f129<-0.1445] yes=61,no=62,missing=61
						61:leaf=0.0399678
						62:leaf=-0.000834433
					34:[f613<-302.5] yes=63,no=64,missing=63
						63:leaf=-0.00825689
						64:leaf=0.0203268
			8:[f427<1615.26] yes=17,no=18,missing=17
				17:[f447<1610.11] yes=35,no=36,missing=35
					35:[f561<-181309] yes=65,no=66,missing=65
						65:leaf=0.00725809
						66:leaf=-0.0166465
					36:[f56<0.131] yes=67,no=68,missing=67
						67:leaf=0.027636
						68:leaf=-0.0123912
				18:[f389<1629.39] yes=37,no=38,missing=37
					37:leaf=0.0275153
					38:leaf=-0.0141772
		4:[f417<558.12] yes=9,no=10,missing=9
			9:[f571<-11502] yes=19,no=20,missing=19
				19:[f673<-2379.5] yes=39,no=40,missing=39
					39:leaf=-0.000120791
					40:leaf=-0.0130988
				20:[f215<0.083] yes=41,no=42,missing=41
					41:[f635<-14.5] yes=69,no=70,missing=69
						69:leaf=-0.000814333
						70:leaf=0.0388793
					42:leaf=0.0712762
			10:[f230<0.0635] yes=21,no=22,missing=21
				21:[f650<9318.5] yes=43,no=44,missing=43
					43:[f552<12094] yes=71,no=72,missing=71
						71:leaf=-0.0181703
						72:leaf=-4.43568e-05
					44:[f316<0.002] yes=73,no=74,missing=73
						73:leaf=-0.0134179
						74:leaf=0.0308482
				22:leaf=0.0273365
	2:[f639<164] yes=5,no=6,missing=5
		5:[f417<5.25] yes=11,no=12,missing=11
			11:[f3<0.0395] yes=23,no=24,missing=23
				23:[f447<19.195] yes=45,no=46,missing=45
					45:[f55<-0.0465] yes=75,no=76,missing=75
						75:leaf=0.038298
						76:leaf=0.00252992
					46:[f381<253.535] yes=77,no=78,missing=77
						77:leaf=-0.0176759
						78:leaf=0.0187488
				24:[f647<-1152] yes=47,no=48,missing=47
					47:[f111<-0.074] yes=79,no=80,missing=79
						79:leaf=-0.00807284
						80:leaf=0.0363158
					48:[f594<9961.5] yes=81,no=82,missing=81
						81:leaf=-0.0178419
						82:leaf=0.00975268
			12:[f70<0.0835] yes=25,no=26,missing=25
				25:[f690<-763370] yes=49,no=50,missing=49
					49:[f684<4019.5] yes=83,no=84,missing=83
						83:leaf=0.0815336
						84:leaf=-0.000383067
					50:[f635<-2072] yes=85,no=86,missing=85
						85:leaf=0.075035
						86:leaf=0.0152438
				26:[f162<0.259] yes=51,no=52,missing=51
					51:[f303<-0.0345] yes=87,no=88,missing=87
						87:leaf=0.0638074
						88:leaf=0.0201074
					52:[f9<-0.0595] yes=89,no=90,missing=89
						89:leaf=0.0289435
						90:leaf=-0.0145814
		6:[f595<768874] yes=13,no=14,missing=13
			13:[f129<0.1455] yes=27,no=28,missing=27
				27:[f369<1128.9] yes=53,no=54,missing=53
					53:[f90<-0.15] yes=91,no=92,missing=91
						91:leaf=-0.000859983
						92:leaf=-0.0194133
					54:leaf=0.00990082
				28:[f435<558.845] yes=55,no=56,missing=55
					55:leaf=-0.0106887
					56:leaf=0.019948
			14:[f690<5430.5] yes=29,no=30,missing=29
				29:leaf=0.0305839
				30:leaf=-0.0144335
booster[34]:
0:[f639<-1.5] yes=1,no=2,missing=1
	1:[f378<557.1] yes=3,no=4,missing=3
		3:[f474<978.095] yes=7,no=8,missing=7
			7:[f487<773.925] yes=15,no=16,missing=15
				15:[f192<0.0275] yes=29,no=30,missing=29
					29:[f423<284.485] yes=53,no=54,missing=53
						53:leaf=-0.0138318
						54:leaf=-0.00545981
					30:[f99<0.0705] yes=55,no=56,missing=55
						55:leaf=-0.00479897
						56:leaf=0.0295391
				16:[f594<-653666] yes=31,no=32,missing=31
					31:[f590<2065.5] yes=57,no=58,missing=57
						57:leaf=-0.0108861
						58:leaf=0.0522155
					32:[f199<0.2355] yes=59,no=60,missing=59
						59:leaf=-0.00742145
						60:leaf=0.0397474
			8:[f182<0.1575] yes=17,no=18,missing=17
				17:[f231<0.2185] yes=33,no=34,missing=33
					33:[f449<1610.11] yes=61,no=62,missing=61
						61:leaf=-0.0163539
						62:leaf=0.00657385
					34:[f583<-4377] yes=63,no=64,missing=63
						63:leaf=0.0218141
						64:leaf=-0.0149742
				18:leaf=0.0193606
		4:[f80<-0.218] yes=9,no=10,missing=9
			9:[f149<-0.0225] yes=19,no=20,missing=19
				19:[f202<0.074] yes=35,no=36,missing=35
					35:leaf=-0.0152913
					36:leaf=0.0133371
				20:[f159<0.0075] yes=37,no=38,missing=37
					37:[f125<0.0345] yes=65,no=66,missing=65
						65:leaf=0.0640353
						66:leaf=0.00903031
					38:[f150<0.113] yes=67,no=68,missing=67
						67:leaf=-0.0145866
						68:leaf=0.0231713
			10:[f147<-0.0765] yes=21,no=22,missing=21
				21:leaf=0.0137333
				22:[f345<0.204] yes=39,no=40,missing=39
					39:[f573<-6807.5] yes=69,no=70,missing=69
						69:leaf=-4.22255e-05
						70:leaf=-0.0184147
					40:leaf=0.00987282
	2:[f639<164] yes=5,no=6,missing=5
		5:[f417<5.22] yes=11,no=12,missing=11
			11:[f3<0.0565] yes=23,no=24,missing=23
				23:[f277<-0.0275] yes=41,no=42,missing=41
